network unknown {
}
variable DBP {
    type discrete [ 2 ] { 0, 1 };
}
variable REM {
    type discrete [ 2 ] { 0, 1 };
}
variable SBP {
    type discrete [ 2 ] { 0, 1 };
}
variable 体脂率 {
    type discrete [ 2 ] { 0, 1 };
}
variable 体重 {
    type discrete [ 2 ] { 0, 1 };
}
variable 其他问题异常 {
    type discrete [ 2 ] { 0, 1 };
    property weight = None ;
}
variable 压力值 {
    type discrete [ 4 ] { 0, 1, 2, 3 };
}
variable 年龄 {
    type discrete [ 3 ] { 0, 1, 2 };
}
variable 心电图 {
    type discrete [ 3 ] { 0, 1, 2 };
}
variable 心脏健康异常 {
    type discrete [ 2 ] { 0, 1 };
    property weight = None ;
}
variable 心血管风险 {
    type discrete [ 3 ] { 0, 1, 2 };
}
variable 慢阻肺风险 {
    type discrete [ 3 ] { 0, 1, 2 };
}
variable 步数 {
    type discrete [ 2 ] { 0, 1 };
}
variable 活动热量 {
    type discrete [ 2 ] { 0, 1 };
}
variable 深睡比例 {
    type discrete [ 2 ] { 0, 1 };
}
variable 清醒次数 {
    type discrete [ 2 ] { 0, 1 };
}
variable 睡眠呼吸率 {
    type discrete [ 2 ] { 0, 1 };
}
variable 睡眠异常 {
    type discrete [ 2 ] { 0, 1 };
    property weight = None ;
}
variable 睡眠得分 {
    type discrete [ 3 ] { 0, 1, 2 };
}
variable 睡眠心率 {
    type discrete [ 2 ] { 0, 1 };
}
variable 睡眠时长 {
    type discrete [ 2 ] { 0, 1 };
}
variable 睡眠血氧 {
    type discrete [ 2 ] { 0, 1 };
}
variable 肺健康异常 {
    type discrete [ 2 ] { 0, 1 };
    property weight = None ;
}
variable 肺功能评估 {
    type discrete [ 3 ] { 0, 1, 2 };
}
variable 肺部感染风险 {
    type discrete [ 3 ] { 0, 1, 2 };
}
variable 脉搏波传导速度 {
    type discrete [ 3 ] { 0, 1, 2 };
}
variable 血氧 {
    type discrete [ 2 ] { 0, 1 };
}
variable 血管弹性 {
    type discrete [ 2 ] { 0, 1 };
}
variable 运动心率 {
    type discrete [ 2 ] { 0, 1 };
}
variable 运动表现异常 {
    type discrete [ 2 ] { 0, 1 };
    property weight = None ;
}
variable 静息心率 {
    type discrete [ 2 ] { 0, 1 };
}
probability ( DBP ) {
    table 0.6723, 0.3277 ;
}
probability ( REM | 深睡比例, 清醒次数 ) {
    ( 0, 0 ) 0.9965826569841948, 0.0034173430158052115;
    ( 0, 1 ) 0.9795081967213115, 0.020491803278688523;
    ( 1, 0 ) 1.0, 0.0;
    ( 1, 1 ) 0.9285714285714286, 0.07142857142857142;

}
probability ( SBP | DBP, 压力值, 年龄, 血氧, 血管弹性 ) {
    ( 0, 0, 0, 0, 0 ) 0.9317180616740088, 0.06828193832599119;
    ( 0, 0, 0, 0, 1 ) 0.8567335243553008, 0.14326647564469913;
    ( 0, 0, 0, 1, 0 ) 0.5, 0.5;
    ( 0, 0, 0, 1, 1 ) 1.0, 0.0;
    ( 0, 0, 1, 0, 0 ) 0.9496221662468514, 0.05037783375314862;
    ( 0, 0, 1, 0, 1 ) 0.9422572178477691, 0.05774278215223097;
    ( 0, 0, 1, 1, 0 ) 1.0, 0.0;
    ( 0, 0, 1, 1, 1 ) 1.0, 0.0;
    ( 0, 0, 2, 0, 0 ) 0.9583333333333334, 0.041666666666666664;
    ( 0, 0, 2, 0, 1 ) 0.9634146341463414, 0.036585365853658534;
    ( 0, 0, 2, 1, 0 ) 0.5, 0.5;
    ( 0, 0, 2, 1, 1 ) 1.0, 0.0;
    ( 0, 1, 0, 0, 0 ) 0.9543726235741445, 0.045627376425855515;
    ( 0, 1, 0, 0, 1 ) 0.9131578947368421, 0.0868421052631579;
    ( 0, 1, 0, 1, 0 ) 0.5, 0.5;
    ( 0, 1, 0, 1, 1 ) 0.6666666666666666, 0.3333333333333333;
    ( 0, 1, 1, 0, 0 ) 0.9710610932475884, 0.028938906752411574;
    ( 0, 1, 1, 0, 1 ) 0.9372294372294372, 0.06277056277056277;
    ( 0, 1, 1, 1, 0 ) 0.5, 0.5;
    ( 0, 1, 1, 1, 1 ) 1.0, 0.0;
    ( 0, 1, 2, 0, 0 ) 1.0, 0.0;
    ( 0, 1, 2, 0, 1 ) 0.9285714285714286, 0.07142857142857142;
    ( 0, 1, 2, 1, 0 ) 0.5, 0.5;
    ( 0, 1, 2, 1, 1 ) 0.5, 0.5;
    ( 0, 2, 0, 0, 0 ) 0.9711538461538461, 0.028846153846153848;
    ( 0, 2, 0, 0, 1 ) 0.9427402862985685, 0.05725971370143149;
    ( 0, 2, 0, 1, 0 ) 0.5, 0.5;
    ( 0, 2, 0, 1, 1 ) 1.0, 0.0;
    ( 0, 2, 1, 0, 0 ) 0.9833333333333333, 0.016666666666666666;
    ( 0, 2, 1, 0, 1 ) 0.9780405405405406, 0.02195945945945946;
    ( 0, 2, 1, 1, 0 ) 1.0, 0.0;
    ( 0, 2, 1, 1, 1 ) 1.0, 0.0;
    ( 0, 2, 2, 0, 0 ) 1.0, 0.0;
    ( 0, 2, 2, 0, 1 ) 0.9913793103448276, 0.008620689655172414;
    ( 0, 2, 2, 1, 0 ) 0.5, 0.5;
    ( 0, 2, 2, 1, 1 ) 1.0, 0.0;
    ( 0, 3, 0, 0, 0 ) 0.9681528662420382, 0.03184713375796178;
    ( 0, 3, 0, 0, 1 ) 0.9857433808553971, 0.014256619144602852;
    ( 0, 3, 0, 1, 0 ) 0.5, 0.5;
    ( 0, 3, 0, 1, 1 ) 1.0, 0.0;
    ( 0, 3, 1, 0, 0 ) 0.9878048780487805, 0.012195121951219513;
    ( 0, 3, 1, 0, 1 ) 0.9929701230228472, 0.007029876977152899;
    ( 0, 3, 1, 1, 0 ) 0.5, 0.5;
    ( 0, 3, 1, 1, 1 ) 1.0, 0.0;
    ( 0, 3, 2, 0, 0 ) 1.0, 0.0;
    ( 0, 3, 2, 0, 1 ) 0.9834710743801653, 0.01652892561983471;
    ( 0, 3, 2, 1, 0 ) 0.5, 0.5;
    ( 0, 3, 2, 1, 1 ) 0.5, 0.5;
    ( 1, 0, 0, 0, 0 ) 0.009900990099009901, 0.9900990099009901;
    ( 1, 0, 0, 0, 1 ) 0.0, 1.0;
    ( 1, 0, 0, 1, 0 ) 0.5, 0.5;
    ( 1, 0, 0, 1, 1 ) 0.0, 1.0;
    ( 1, 0, 1, 0, 0 ) 0.0, 1.0;
    ( 1, 0, 1, 0, 1 ) 0.0, 1.0;
    ( 1, 0, 1, 1, 0 ) 0.5, 0.5;
    ( 1, 0, 1, 1, 1 ) 0.0, 1.0;
    ( 1, 0, 2, 0, 0 ) 0.0, 1.0;
    ( 1, 0, 2, 0, 1 ) 0.0, 1.0;
    ( 1, 0, 2, 1, 0 ) 0.5, 0.5;
    ( 1, 0, 2, 1, 1 ) 0.0, 1.0;
    ( 1, 1, 0, 0, 0 ) 0.0, 1.0;
    ( 1, 1, 0, 0, 1 ) 0.0, 1.0;
    ( 1, 1, 0, 1, 0 ) 0.5, 0.5;
    ( 1, 1, 0, 1, 1 ) 0.0, 1.0;
    ( 1, 1, 1, 0, 0 ) 0.0, 1.0;
    ( 1, 1, 1, 0, 1 ) 0.0, 1.0;
    ( 1, 1, 1, 1, 0 ) 0.5, 0.5;
    ( 1, 1, 1, 1, 1 ) 0.0, 1.0;
    ( 1, 1, 2, 0, 0 ) 0.0, 1.0;
    ( 1, 1, 2, 0, 1 ) 0.0, 1.0;
    ( 1, 1, 2, 1, 0 ) 0.5, 0.5;
    ( 1, 1, 2, 1, 1 ) 0.0, 1.0;
    ( 1, 2, 0, 0, 0 ) 0.0, 1.0;
    ( 1, 2, 0, 0, 1 ) 0.0, 1.0;
    ( 1, 2, 0, 1, 0 ) 0.5, 0.5;
    ( 1, 2, 0, 1, 1 ) 0.0, 1.0;
    ( 1, 2, 1, 0, 0 ) 0.0, 1.0;
    ( 1, 2, 1, 0, 1 ) 0.0, 1.0;
    ( 1, 2, 1, 1, 0 ) 0.5, 0.5;
    ( 1, 2, 1, 1, 1 ) 0.0, 1.0;
    ( 1, 2, 2, 0, 0 ) 0.0, 1.0;
    ( 1, 2, 2, 0, 1 ) 0.0, 1.0;
    ( 1, 2, 2, 1, 0 ) 0.5, 0.5;
    ( 1, 2, 2, 1, 1 ) 0.0, 1.0;
    ( 1, 3, 0, 0, 0 ) 0.0, 1.0;
    ( 1, 3, 0, 0, 1 ) 0.0, 1.0;
    ( 1, 3, 0, 1, 0 ) 0.5, 0.5;
    ( 1, 3, 0, 1, 1 ) 0.0, 1.0;
    ( 1, 3, 1, 0, 0 ) 0.0, 1.0;
    ( 1, 3, 1, 0, 1 ) 0.0, 1.0;
    ( 1, 3, 1, 1, 0 ) 0.5, 0.5;
    ( 1, 3, 1, 1, 1 ) 0.0, 1.0;
    ( 1, 3, 2, 0, 0 ) 0.5, 0.5;
    ( 1, 3, 2, 0, 1 ) 0.0, 1.0;
    ( 1, 3, 2, 1, 0 ) 0.5, 0.5;
    ( 1, 3, 2, 1, 1 ) 0.0, 1.0;

}
probability ( 体脂率 | 体重 ) {
    ( 0 ) 0.9787809028125313, 0.02121909718746872;
    ( 1 ) 0.8888888888888888, 0.1111111111111111;

}
probability ( 体重 | 年龄 ) {
    ( 0 ) 1.0, 0.0;
    ( 1 ) 0.9981316171891219, 0.0018683828108781398;
    ( 2 ) 1.0, 0.0;

}
probability ( 其他问题异常 | 静息心率, 压力值 ) {
    ( 0, 0 ) 0.99, 0.01;
    ( 0, 1 ) 0.77, 0.23;
    ( 0, 2 ) 0.55, 0.45;
    ( 0, 3 ) 0.33, 0.67;
    ( 1, 0 ) 0.77, 0.23;
    ( 1, 1 ) 0.55, 0.45;
    ( 1, 2 ) 0.33, 0.67;
    ( 1, 3 ) 0.11, 0.89;

}
probability ( 压力值 | 体重 ) {
    ( 0 ) 0.2455209688719848, 0.23641277149434492, 0.28735862276048446, 0.23070763687318588;
    ( 1 ) 0.1111111111111111, 0.1111111111111111, 0.1111111111111111, 0.6666666666666666;

}
probability ( 年龄 ) {
    table 0.4318, 0.4817, 0.0865 ;
}
probability ( 心电图 | SBP, 压力值, 年龄, 深睡比例, 脉搏波传导速度, 血氧, 血管弹性, 静息心率 ) {
    ( 0, 0, 0, 0, 0, 0, 0, 0 ) 0.3333333333333333, 0.3333333333333333, 0.3333333333333333;
    ( 0, 0, 0, 0, 0, 0, 0, 1 ) 0.3333333333333333, 0.3333333333333333, 0.3333333333333333;
    ( 0, 0, 0, 0, 0, 0, 1, 0 ) 0.3333333333333333, 0.3333333333333333, 0.3333333333333333;
    ( 0, 0, 0, 0, 0, 0, 1, 1 ) 0.3333333333333333, 0.3333333333333333, 0.3333333333333333;
    ( 0, 0, 0, 0, 0, 1, 0, 0 ) 0.3333333333333333, 0.3333333333333333, 0.3333333333333333;
    ( 0, 0, 0, 0, 0, 1, 0, 1 ) 0.3333333333333333, 0.3333333333333333, 0.3333333333333333;
    ( 0, 0, 0, 0, 0, 1, 1, 0 ) 0.3333333333333333, 0.3333333333333333, 0.3333333333333333;
    ( 0, 0, 0, 0, 0, 1, 1, 1 ) 0.3333333333333333, 0.3333333333333333, 0.3333333333333333;
    ( 0, 0, 0, 0, 1, 0, 0, 0 ) 0.022388059701492536, 0.9776119402985075, 0.0;
    ( 0, 0, 0, 0, 1, 0, 0, 1 ) 0.3333333333333333, 0.3333333333333333, 0.3333333333333333;
    ( 0, 0, 0, 0, 1, 0, 1, 0 ) 0.020338983050847456, 0.9796610169491525, 0.0;
    ( 0, 0, 0, 0, 1, 0, 1, 1 ) 0.3333333333333333, 0.3333333333333333, 0.3333333333333333;
    ( 0, 0, 0, 0, 1, 1, 0, 0 ) 0.3333333333333333, 0.3333333333333333, 0.3333333333333333;
    ( 0, 0, 0, 0, 1, 1, 0, 1 ) 0.3333333333333333, 0.3333333333333333, 0.3333333333333333;
    ( 0, 0, 0, 0, 1, 1, 1, 0 ) 0.0, 1.0, 0.0;
    ( 0, 0, 0, 0, 1, 1, 1, 1 ) 0.3333333333333333, 0.3333333333333333, 0.3333333333333333;
    ( 0, 0, 0, 0, 2, 0, 0, 0 ) 0.0, 1.0, 0.0;
    ( 0, 0, 0, 0, 2, 0, 0, 1 ) 0.3333333333333333, 0.3333333333333333, 0.3333333333333333;
    ( 0, 0, 0, 0, 2, 0, 1, 0 ) 0.0, 1.0, 0.0;
    ( 0, 0, 0, 0, 2, 0, 1, 1 ) 0.3333333333333333, 0.3333333333333333, 0.3333333333333333;
    ( 0, 0, 0, 0, 2, 1, 0, 0 ) 0.3333333333333333, 0.3333333333333333, 0.3333333333333333;
    ( 0, 0, 0, 0, 2, 1, 0, 1 ) 0.3333333333333333, 0.3333333333333333, 0.3333333333333333;
    ( 0, 0, 0, 0, 2, 1, 1, 0 ) 0.3333333333333333, 0.3333333333333333, 0.3333333333333333;
    ( 0, 0, 0, 0, 2, 1, 1, 1 ) 0.3333333333333333, 0.3333333333333333, 0.3333333333333333;
    ( 0, 0, 0, 1, 0, 0, 0, 0 ) 0.3333333333333333, 0.3333333333333333, 0.3333333333333333;
    ( 0, 0, 0, 1, 0, 0, 0, 1 ) 0.3333333333333333, 0.3333333333333333, 0.3333333333333333;
    ( 0, 0, 0, 1, 0, 0, 1, 0 ) 0.3333333333333333, 0.3333333333333333, 0.3333333333333333;
    ( 0, 0, 0, 1, 0, 0, 1, 1 ) 0.3333333333333333, 0.3333333333333333, 0.3333333333333333;
    ( 0, 0, 0, 1, 0, 1, 0, 0 ) 0.3333333333333333, 0.3333333333333333, 0.3333333333333333;
    ( 0, 0, 0, 1, 0, 1, 0, 1 ) 0.3333333333333333, 0.3333333333333333, 0.3333333333333333;
    ( 0, 0, 0, 1, 0, 1, 1, 0 ) 0.3333333333333333, 0.3333333333333333, 0.3333333333333333;
    ( 0, 0, 0, 1, 0, 1, 1, 1 ) 0.3333333333333333, 0.3333333333333333, 0.3333333333333333;
    ( 0, 0, 0, 1, 1, 0, 0, 0 ) 0.0, 1.0, 0.0;
    ( 0, 0, 0, 1, 1, 0, 0, 1 ) 0.3333333333333333, 0.3333333333333333, 0.3333333333333333;
    ( 0, 0, 0, 1, 1, 0, 1, 0 ) 0.0, 1.0, 0.0;
    ( 0, 0, 0, 1, 1, 0, 1, 1 ) 0.3333333333333333, 0.3333333333333333, 0.3333333333333333;
    ( 0, 0, 0, 1, 1, 1, 0, 0 ) 0.3333333333333333, 0.3333333333333333, 0.3333333333333333;
    ( 0, 0, 0, 1, 1, 1, 0, 1 ) 0.3333333333333333, 0.3333333333333333, 0.3333333333333333;
    ( 0, 0, 0, 1, 1, 1, 1, 0 ) 0.3333333333333333, 0.3333333333333333, 0.3333333333333333;
    ( 0, 0, 0, 1, 1, 1, 1, 1 ) 0.3333333333333333, 0.3333333333333333, 0.3333333333333333;
    ( 0, 0, 0, 1, 2, 0, 0, 0 ) 0.3333333333333333, 0.3333333333333333, 0.3333333333333333;
    ( 0, 0, 0, 1, 2, 0, 0, 1 ) 0.3333333333333333, 0.3333333333333333, 0.3333333333333333;
    ( 0, 0, 0, 1, 2, 0, 1, 0 ) 0.3333333333333333, 0.3333333333333333, 0.3333333333333333;
    ( 0, 0, 0, 1, 2, 0, 1, 1 ) 0.3333333333333333, 0.3333333333333333, 0.3333333333333333;
    ( 0, 0, 0, 1, 2, 1, 0, 0 ) 0.3333333333333333, 0.3333333333333333, 0.3333333333333333;
    ( 0, 0, 0, 1, 2, 1, 0, 1 ) 0.3333333333333333, 0.3333333333333333, 0.3333333333333333;
    ( 0, 0, 0, 1, 2, 1, 1, 0 ) 0.3333333333333333, 0.3333333333333333, 0.3333333333333333;
    ( 0, 0, 0, 1, 2, 1, 1, 1 ) 0.3333333333333333, 0.3333333333333333, 0.3333333333333333;
    ( 0, 0, 1, 0, 0, 0, 0, 0 ) 0.3333333333333333, 0.3333333333333333, 0.3333333333333333;
    ( 0, 0, 1, 0, 0, 0, 0, 1 ) 0.3333333333333333, 0.3333333333333333, 0.3333333333333333;
    ( 0, 0, 1, 0, 0, 0, 1, 0 ) 0.0, 1.0, 0.0;
    ( 0, 0, 1, 0, 0, 0, 1, 1 ) 0.3333333333333333, 0.3333333333333333, 0.3333333333333333;
    ( 0, 0, 1, 0, 0, 1, 0, 0 ) 0.3333333333333333, 0.3333333333333333, 0.3333333333333333;
    ( 0, 0, 1, 0, 0, 1, 0, 1 ) 0.3333333333333333, 0.3333333333333333, 0.3333333333333333;
    ( 0, 0, 1, 0, 0, 1, 1, 0 ) 0.3333333333333333, 0.3333333333333333, 0.3333333333333333;
    ( 0, 0, 1, 0, 0, 1, 1, 1 ) 0.3333333333333333, 0.3333333333333333, 0.3333333333333333;
    ( 0, 0, 1, 0, 1, 0, 0, 0 ) 0.021798365122615803, 0.9782016348773842, 0.0;
    ( 0, 0, 1, 0, 1, 0, 0, 1 ) 0.3333333333333333, 0.3333333333333333, 0.3333333333333333;
    ( 0, 0, 1, 0, 1, 0, 1, 0 ) 0.017045454545454544, 0.9829545454545454, 0.0;
    ( 0, 0, 1, 0, 1, 0, 1, 1 ) 0.0, 1.0, 0.0;
    ( 0, 0, 1, 0, 1, 1, 0, 0 ) 0.0, 1.0, 0.0;
    ( 0, 0, 1, 0, 1, 1, 0, 1 ) 0.3333333333333333, 0.3333333333333333, 0.3333333333333333;
    ( 0, 0, 1, 0, 1, 1, 1, 0 ) 0.0, 1.0, 0.0;
    ( 0, 0, 1, 0, 1, 1, 1, 1 ) 0.3333333333333333, 0.3333333333333333, 0.3333333333333333;
    ( 0, 0, 1, 0, 2, 0, 0, 0 ) 0.0, 1.0, 0.0;
    ( 0, 0, 1, 0, 2, 0, 0, 1 ) 0.3333333333333333, 0.3333333333333333, 0.3333333333333333;
    ( 0, 0, 1, 0, 2, 0, 1, 0 ) 0.0, 1.0, 0.0;
    ( 0, 0, 1, 0, 2, 0, 1, 1 ) 0.3333333333333333, 0.3333333333333333, 0.3333333333333333;
    ( 0, 0, 1, 0, 2, 1, 0, 0 ) 0.3333333333333333, 0.3333333333333333, 0.3333333333333333;
    ( 0, 0, 1, 0, 2, 1, 0, 1 ) 0.3333333333333333, 0.3333333333333333, 0.3333333333333333;
    ( 0, 0, 1, 0, 2, 1, 1, 0 ) 0.3333333333333333, 0.3333333333333333, 0.3333333333333333;
    ( 0, 0, 1, 0, 2, 1, 1, 1 ) 0.3333333333333333, 0.3333333333333333, 0.3333333333333333;
    ( 0, 0, 1, 1, 0, 0, 0, 0 ) 0.3333333333333333, 0.3333333333333333, 0.3333333333333333;
    ( 0, 0, 1, 1, 0, 0, 0, 1 ) 0.3333333333333333, 0.3333333333333333, 0.3333333333333333;
    ( 0, 0, 1, 1, 0, 0, 1, 0 ) 0.3333333333333333, 0.3333333333333333, 0.3333333333333333;
    ( 0, 0, 1, 1, 0, 0, 1, 1 ) 0.3333333333333333, 0.3333333333333333, 0.3333333333333333;
    ( 0, 0, 1, 1, 0, 1, 0, 0 ) 0.3333333333333333, 0.3333333333333333, 0.3333333333333333;
    ( 0, 0, 1, 1, 0, 1, 0, 1 ) 0.3333333333333333, 0.3333333333333333, 0.3333333333333333;
    ( 0, 0, 1, 1, 0, 1, 1, 0 ) 0.3333333333333333, 0.3333333333333333, 0.3333333333333333;
    ( 0, 0, 1, 1, 0, 1, 1, 1 ) 0.3333333333333333, 0.3333333333333333, 0.3333333333333333;
    ( 0, 0, 1, 1, 1, 0, 0, 0 ) 0.0, 1.0, 0.0;
    ( 0, 0, 1, 1, 1, 0, 0, 1 ) 0.3333333333333333, 0.3333333333333333, 0.3333333333333333;
    ( 0, 0, 1, 1, 1, 0, 1, 0 ) 0.0, 1.0, 0.0;
    ( 0, 0, 1, 1, 1, 0, 1, 1 ) 0.3333333333333333, 0.3333333333333333, 0.3333333333333333;
    ( 0, 0, 1, 1, 1, 1, 0, 0 ) 0.3333333333333333, 0.3333333333333333, 0.3333333333333333;
    ( 0, 0, 1, 1, 1, 1, 0, 1 ) 0.3333333333333333, 0.3333333333333333, 0.3333333333333333;
    ( 0, 0, 1, 1, 1, 1, 1, 0 ) 0.3333333333333333, 0.3333333333333333, 0.3333333333333333;
    ( 0, 0, 1, 1, 1, 1, 1, 1 ) 0.3333333333333333, 0.3333333333333333, 0.3333333333333333;
    ( 0, 0, 1, 1, 2, 0, 0, 0 ) 0.3333333333333333, 0.3333333333333333, 0.3333333333333333;
    ( 0, 0, 1, 1, 2, 0, 0, 1 ) 0.3333333333333333, 0.3333333333333333, 0.3333333333333333;
    ( 0, 0, 1, 1, 2, 0, 1, 0 ) 0.3333333333333333, 0.3333333333333333, 0.3333333333333333;
    ( 0, 0, 1, 1, 2, 0, 1, 1 ) 0.3333333333333333, 0.3333333333333333, 0.3333333333333333;
    ( 0, 0, 1, 1, 2, 1, 0, 0 ) 0.3333333333333333, 0.3333333333333333, 0.3333333333333333;
    ( 0, 0, 1, 1, 2, 1, 0, 1 ) 0.3333333333333333, 0.3333333333333333, 0.3333333333333333;
    ( 0, 0, 1, 1, 2, 1, 1, 0 ) 0.3333333333333333, 0.3333333333333333, 0.3333333333333333;
    ( 0, 0, 1, 1, 2, 1, 1, 1 ) 0.3333333333333333, 0.3333333333333333, 0.3333333333333333;
    ( 0, 0, 2, 0, 0, 0, 0, 0 ) 0.3333333333333333, 0.3333333333333333, 0.3333333333333333;
    ( 0, 0, 2, 0, 0, 0, 0, 1 ) 0.3333333333333333, 0.3333333333333333, 0.3333333333333333;
    ( 0, 0, 2, 0, 0, 0, 1, 0 ) 0.0, 1.0, 0.0;
    ( 0, 0, 2, 0, 0, 0, 1, 1 ) 0.3333333333333333, 0.3333333333333333, 0.3333333333333333;
    ( 0, 0, 2, 0, 0, 1, 0, 0 ) 0.3333333333333333, 0.3333333333333333, 0.3333333333333333;
    ( 0, 0, 2, 0, 0, 1, 0, 1 ) 0.3333333333333333, 0.3333333333333333, 0.3333333333333333;
    ( 0, 0, 2, 0, 0, 1, 1, 0 ) 0.3333333333333333, 0.3333333333333333, 0.3333333333333333;
    ( 0, 0, 2, 0, 0, 1, 1, 1 ) 0.3333333333333333, 0.3333333333333333, 0.3333333333333333;
    ( 0, 0, 2, 0, 1, 0, 0, 0 ) 0.0, 1.0, 0.0;
    ( 0, 0, 2, 0, 1, 0, 0, 1 ) 0.0, 1.0, 0.0;
    ( 0, 0, 2, 0, 1, 0, 1, 0 ) 0.0, 1.0, 0.0;
    ( 0, 0, 2, 0, 1, 0, 1, 1 ) 0.0, 1.0, 0.0;
    ( 0, 0, 2, 0, 1, 1, 0, 0 ) 0.3333333333333333, 0.3333333333333333, 0.3333333333333333;
    ( 0, 0, 2, 0, 1, 1, 0, 1 ) 0.3333333333333333, 0.3333333333333333, 0.3333333333333333;
    ( 0, 0, 2, 0, 1, 1, 1, 0 ) 0.0, 1.0, 0.0;
    ( 0, 0, 2, 0, 1, 1, 1, 1 ) 0.3333333333333333, 0.3333333333333333, 0.3333333333333333;
    ( 0, 0, 2, 0, 2, 0, 0, 0 ) 0.0, 1.0, 0.0;
    ( 0, 0, 2, 0, 2, 0, 0, 1 ) 0.3333333333333333, 0.3333333333333333, 0.3333333333333333;
    ( 0, 0, 2, 0, 2, 0, 1, 0 ) 0.3333333333333333, 0.3333333333333333, 0.3333333333333333;
    ( 0, 0, 2, 0, 2, 0, 1, 1 ) 0.3333333333333333, 0.3333333333333333, 0.3333333333333333;
    ( 0, 0, 2, 0, 2, 1, 0, 0 ) 0.3333333333333333, 0.3333333333333333, 0.3333333333333333;
    ( 0, 0, 2, 0, 2, 1, 0, 1 ) 0.3333333333333333, 0.3333333333333333, 0.3333333333333333;
    ( 0, 0, 2, 0, 2, 1, 1, 0 ) 0.3333333333333333, 0.3333333333333333, 0.3333333333333333;
    ( 0, 0, 2, 0, 2, 1, 1, 1 ) 0.3333333333333333, 0.3333333333333333, 0.3333333333333333;
    ( 0, 0, 2, 1, 0, 0, 0, 0 ) 0.3333333333333333, 0.3333333333333333, 0.3333333333333333;
    ( 0, 0, 2, 1, 0, 0, 0, 1 ) 0.3333333333333333, 0.3333333333333333, 0.3333333333333333;
    ( 0, 0, 2, 1, 0, 0, 1, 0 ) 0.3333333333333333, 0.3333333333333333, 0.3333333333333333;
    ( 0, 0, 2, 1, 0, 0, 1, 1 ) 0.3333333333333333, 0.3333333333333333, 0.3333333333333333;
    ( 0, 0, 2, 1, 0, 1, 0, 0 ) 0.3333333333333333, 0.3333333333333333, 0.3333333333333333;
    ( 0, 0, 2, 1, 0, 1, 0, 1 ) 0.3333333333333333, 0.3333333333333333, 0.3333333333333333;
    ( 0, 0, 2, 1, 0, 1, 1, 0 ) 0.3333333333333333, 0.3333333333333333, 0.3333333333333333;
    ( 0, 0, 2, 1, 0, 1, 1, 1 ) 0.3333333333333333, 0.3333333333333333, 0.3333333333333333;
    ( 0, 0, 2, 1, 1, 0, 0, 0 ) 0.3333333333333333, 0.3333333333333333, 0.3333333333333333;
    ( 0, 0, 2, 1, 1, 0, 0, 1 ) 0.3333333333333333, 0.3333333333333333, 0.3333333333333333;
    ( 0, 0, 2, 1, 1, 0, 1, 0 ) 0.3333333333333333, 0.3333333333333333, 0.3333333333333333;
    ( 0, 0, 2, 1, 1, 0, 1, 1 ) 0.3333333333333333, 0.3333333333333333, 0.3333333333333333;
    ( 0, 0, 2, 1, 1, 1, 0, 0 ) 0.3333333333333333, 0.3333333333333333, 0.3333333333333333;
    ( 0, 0, 2, 1, 1, 1, 0, 1 ) 0.3333333333333333, 0.3333333333333333, 0.3333333333333333;
    ( 0, 0, 2, 1, 1, 1, 1, 0 ) 0.3333333333333333, 0.3333333333333333, 0.3333333333333333;
    ( 0, 0, 2, 1, 1, 1, 1, 1 ) 0.3333333333333333, 0.3333333333333333, 0.3333333333333333;
    ( 0, 0, 2, 1, 2, 0, 0, 0 ) 0.3333333333333333, 0.3333333333333333, 0.3333333333333333;
    ( 0, 0, 2, 1, 2, 0, 0, 1 ) 0.3333333333333333, 0.3333333333333333, 0.3333333333333333;
    ( 0, 0, 2, 1, 2, 0, 1, 0 ) 0.3333333333333333, 0.3333333333333333, 0.3333333333333333;
    ( 0, 0, 2, 1, 2, 0, 1, 1 ) 0.3333333333333333, 0.3333333333333333, 0.3333333333333333;
    ( 0, 0, 2, 1, 2, 1, 0, 0 ) 0.3333333333333333, 0.3333333333333333, 0.3333333333333333;
    ( 0, 0, 2, 1, 2, 1, 0, 1 ) 0.3333333333333333, 0.3333333333333333, 0.3333333333333333;
    ( 0, 0, 2, 1, 2, 1, 1, 0 ) 0.3333333333333333, 0.3333333333333333, 0.3333333333333333;
    ( 0, 0, 2, 1, 2, 1, 1, 1 ) 0.3333333333333333, 0.3333333333333333, 0.3333333333333333;
    ( 0, 1, 0, 0, 0, 0, 0, 0 ) 0.0, 1.0, 0.0;
    ( 0, 1, 0, 0, 0, 0, 0, 1 ) 0.3333333333333333, 0.3333333333333333, 0.3333333333333333;
    ( 0, 1, 0, 0, 0, 0, 1, 0 ) 0.3333333333333333, 0.3333333333333333, 0.3333333333333333;
    ( 0, 1, 0, 0, 0, 0, 1, 1 ) 0.3333333333333333, 0.3333333333333333, 0.3333333333333333;
    ( 0, 1, 0, 0, 0, 1, 0, 0 ) 0.3333333333333333, 0.3333333333333333, 0.3333333333333333;
    ( 0, 1, 0, 0, 0, 1, 0, 1 ) 0.3333333333333333, 0.3333333333333333, 0.3333333333333333;
    ( 0, 1, 0, 0, 0, 1, 1, 0 ) 0.3333333333333333, 0.3333333333333333, 0.3333333333333333;
    ( 0, 1, 0, 0, 0, 1, 1, 1 ) 0.3333333333333333, 0.3333333333333333, 0.3333333333333333;
    ( 0, 1, 0, 0, 1, 0, 0, 0 ) 0.02074688796680498, 0.979253112033195, 0.0;
    ( 0, 1, 0, 0, 1, 0, 0, 1 ) 0.3333333333333333, 0.3333333333333333, 0.3333333333333333;
    ( 0, 1, 0, 0, 1, 0, 1, 0 ) 0.011764705882352941, 0.9882352941176471, 0.0;
    ( 0, 1, 0, 0, 1, 0, 1, 1 ) 0.0, 1.0, 0.0;
    ( 0, 1, 0, 0, 1, 1, 0, 0 ) 0.3333333333333333, 0.3333333333333333, 0.3333333333333333;
    ( 0, 1, 0, 0, 1, 1, 0, 1 ) 0.3333333333333333, 0.3333333333333333, 0.3333333333333333;
    ( 0, 1, 0, 0, 1, 1, 1, 0 ) 1.0, 0.0, 0.0;
    ( 0, 1, 0, 0, 1, 1, 1, 1 ) 0.0, 1.0, 0.0;
    ( 0, 1, 0, 0, 2, 0, 0, 0 ) 0.16666666666666666, 0.8333333333333334, 0.0;
    ( 0, 1, 0, 0, 2, 0, 0, 1 ) 0.3333333333333333, 0.3333333333333333, 0.3333333333333333;
    ( 0, 1, 0, 0, 2, 0, 1, 0 ) 0.0, 1.0, 0.0;
    ( 0, 1, 0, 0, 2, 0, 1, 1 ) 0.3333333333333333, 0.3333333333333333, 0.3333333333333333;
    ( 0, 1, 0, 0, 2, 1, 0, 0 ) 0.3333333333333333, 0.3333333333333333, 0.3333333333333333;
    ( 0, 1, 0, 0, 2, 1, 0, 1 ) 0.3333333333333333, 0.3333333333333333, 0.3333333333333333;
    ( 0, 1, 0, 0, 2, 1, 1, 0 ) 0.3333333333333333, 0.3333333333333333, 0.3333333333333333;
    ( 0, 1, 0, 0, 2, 1, 1, 1 ) 0.3333333333333333, 0.3333333333333333, 0.3333333333333333;
    ( 0, 1, 0, 1, 0, 0, 0, 0 ) 0.3333333333333333, 0.3333333333333333, 0.3333333333333333;
    ( 0, 1, 0, 1, 0, 0, 0, 1 ) 0.3333333333333333, 0.3333333333333333, 0.3333333333333333;
    ( 0, 1, 0, 1, 0, 0, 1, 0 ) 0.3333333333333333, 0.3333333333333333, 0.3333333333333333;
    ( 0, 1, 0, 1, 0, 0, 1, 1 ) 0.3333333333333333, 0.3333333333333333, 0.3333333333333333;
    ( 0, 1, 0, 1, 0, 1, 0, 0 ) 0.3333333333333333, 0.3333333333333333, 0.3333333333333333;
    ( 0, 1, 0, 1, 0, 1, 0, 1 ) 0.3333333333333333, 0.3333333333333333, 0.3333333333333333;
    ( 0, 1, 0, 1, 0, 1, 1, 0 ) 0.3333333333333333, 0.3333333333333333, 0.3333333333333333;
    ( 0, 1, 0, 1, 0, 1, 1, 1 ) 0.3333333333333333, 0.3333333333333333, 0.3333333333333333;
    ( 0, 1, 0, 1, 1, 0, 0, 0 ) 0.0, 1.0, 0.0;
    ( 0, 1, 0, 1, 1, 0, 0, 1 ) 0.3333333333333333, 0.3333333333333333, 0.3333333333333333;
    ( 0, 1, 0, 1, 1, 0, 1, 0 ) 0.3333333333333333, 0.3333333333333333, 0.3333333333333333;
    ( 0, 1, 0, 1, 1, 0, 1, 1 ) 0.3333333333333333, 0.3333333333333333, 0.3333333333333333;
    ( 0, 1, 0, 1, 1, 1, 0, 0 ) 0.3333333333333333, 0.3333333333333333, 0.3333333333333333;
    ( 0, 1, 0, 1, 1, 1, 0, 1 ) 0.3333333333333333, 0.3333333333333333, 0.3333333333333333;
    ( 0, 1, 0, 1, 1, 1, 1, 0 ) 0.3333333333333333, 0.3333333333333333, 0.3333333333333333;
    ( 0, 1, 0, 1, 1, 1, 1, 1 ) 0.3333333333333333, 0.3333333333333333, 0.3333333333333333;
    ( 0, 1, 0, 1, 2, 0, 0, 0 ) 0.0, 1.0, 0.0;
    ( 0, 1, 0, 1, 2, 0, 0, 1 ) 0.3333333333333333, 0.3333333333333333, 0.3333333333333333;
    ( 0, 1, 0, 1, 2, 0, 1, 0 ) 0.3333333333333333, 0.3333333333333333, 0.3333333333333333;
    ( 0, 1, 0, 1, 2, 0, 1, 1 ) 0.3333333333333333, 0.3333333333333333, 0.3333333333333333;
    ( 0, 1, 0, 1, 2, 1, 0, 0 ) 0.3333333333333333, 0.3333333333333333, 0.3333333333333333;
    ( 0, 1, 0, 1, 2, 1, 0, 1 ) 0.3333333333333333, 0.3333333333333333, 0.3333333333333333;
    ( 0, 1, 0, 1, 2, 1, 1, 0 ) 0.3333333333333333, 0.3333333333333333, 0.3333333333333333;
    ( 0, 1, 0, 1, 2, 1, 1, 1 ) 0.3333333333333333, 0.3333333333333333, 0.3333333333333333;
    ( 0, 1, 1, 0, 0, 0, 0, 0 ) 0.0, 1.0, 0.0;
    ( 0, 1, 1, 0, 0, 0, 0, 1 ) 0.3333333333333333, 0.3333333333333333, 0.3333333333333333;
    ( 0, 1, 1, 0, 0, 0, 1, 0 ) 0.0, 1.0, 0.0;
    ( 0, 1, 1, 0, 0, 0, 1, 1 ) 0.3333333333333333, 0.3333333333333333, 0.3333333333333333;
    ( 0, 1, 1, 0, 0, 1, 0, 0 ) 0.3333333333333333, 0.3333333333333333, 0.3333333333333333;
    ( 0, 1, 1, 0, 0, 1, 0, 1 ) 0.3333333333333333, 0.3333333333333333, 0.3333333333333333;
    ( 0, 1, 1, 0, 0, 1, 1, 0 ) 0.3333333333333333, 0.3333333333333333, 0.3333333333333333;
    ( 0, 1, 1, 0, 0, 1, 1, 1 ) 0.3333333333333333, 0.3333333333333333, 0.3333333333333333;
    ( 0, 1, 1, 0, 1, 0, 0, 0 ) 0.023972602739726026, 0.976027397260274, 0.0;
    ( 0, 1, 1, 0, 1, 0, 0, 1 ) 0.3333333333333333, 0.3333333333333333, 0.3333333333333333;
    ( 0, 1, 1, 0, 1, 0, 1, 0 ) 0.026066350710900472, 0.9739336492890995, 0.0;
    ( 0, 1, 1, 0, 1, 0, 1, 1 ) 0.0, 1.0, 0.0;
    ( 0, 1, 1, 0, 1, 1, 0, 0 ) 0.3333333333333333, 0.3333333333333333, 0.3333333333333333;
    ( 0, 1, 1, 0, 1, 1, 0, 1 ) 0.3333333333333333, 0.3333333333333333, 0.3333333333333333;
    ( 0, 1, 1, 0, 1, 1, 1, 0 ) 0.0, 1.0, 0.0;
    ( 0, 1, 1, 0, 1, 1, 1, 1 ) 0.3333333333333333, 0.3333333333333333, 0.3333333333333333;
    ( 0, 1, 1, 0, 2, 0, 0, 0 ) 0.0, 1.0, 0.0;
    ( 0, 1, 1, 0, 2, 0, 0, 1 ) 0.3333333333333333, 0.3333333333333333, 0.3333333333333333;
    ( 0, 1, 1, 0, 2, 0, 1, 0 ) 0.0, 1.0, 0.0;
    ( 0, 1, 1, 0, 2, 0, 1, 1 ) 0.3333333333333333, 0.3333333333333333, 0.3333333333333333;
    ( 0, 1, 1, 0, 2, 1, 0, 0 ) 0.3333333333333333, 0.3333333333333333, 0.3333333333333333;
    ( 0, 1, 1, 0, 2, 1, 0, 1 ) 0.3333333333333333, 0.3333333333333333, 0.3333333333333333;
    ( 0, 1, 1, 0, 2, 1, 1, 0 ) 0.3333333333333333, 0.3333333333333333, 0.3333333333333333;
    ( 0, 1, 1, 0, 2, 1, 1, 1 ) 0.3333333333333333, 0.3333333333333333, 0.3333333333333333;
    ( 0, 1, 1, 1, 0, 0, 0, 0 ) 0.3333333333333333, 0.3333333333333333, 0.3333333333333333;
    ( 0, 1, 1, 1, 0, 0, 0, 1 ) 0.3333333333333333, 0.3333333333333333, 0.3333333333333333;
    ( 0, 1, 1, 1, 0, 0, 1, 0 ) 0.3333333333333333, 0.3333333333333333, 0.3333333333333333;
    ( 0, 1, 1, 1, 0, 0, 1, 1 ) 0.3333333333333333, 0.3333333333333333, 0.3333333333333333;
    ( 0, 1, 1, 1, 0, 1, 0, 0 ) 0.3333333333333333, 0.3333333333333333, 0.3333333333333333;
    ( 0, 1, 1, 1, 0, 1, 0, 1 ) 0.3333333333333333, 0.3333333333333333, 0.3333333333333333;
    ( 0, 1, 1, 1, 0, 1, 1, 0 ) 0.3333333333333333, 0.3333333333333333, 0.3333333333333333;
    ( 0, 1, 1, 1, 0, 1, 1, 1 ) 0.3333333333333333, 0.3333333333333333, 0.3333333333333333;
    ( 0, 1, 1, 1, 1, 0, 0, 0 ) 0.0, 1.0, 0.0;
    ( 0, 1, 1, 1, 1, 0, 0, 1 ) 0.3333333333333333, 0.3333333333333333, 0.3333333333333333;
    ( 0, 1, 1, 1, 1, 0, 1, 0 ) 0.0, 1.0, 0.0;
    ( 0, 1, 1, 1, 1, 0, 1, 1 ) 0.3333333333333333, 0.3333333333333333, 0.3333333333333333;
    ( 0, 1, 1, 1, 1, 1, 0, 0 ) 0.3333333333333333, 0.3333333333333333, 0.3333333333333333;
    ( 0, 1, 1, 1, 1, 1, 0, 1 ) 0.3333333333333333, 0.3333333333333333, 0.3333333333333333;
    ( 0, 1, 1, 1, 1, 1, 1, 0 ) 0.3333333333333333, 0.3333333333333333, 0.3333333333333333;
    ( 0, 1, 1, 1, 1, 1, 1, 1 ) 0.3333333333333333, 0.3333333333333333, 0.3333333333333333;
    ( 0, 1, 1, 1, 2, 0, 0, 0 ) 0.3333333333333333, 0.3333333333333333, 0.3333333333333333;
    ( 0, 1, 1, 1, 2, 0, 0, 1 ) 0.3333333333333333, 0.3333333333333333, 0.3333333333333333;
    ( 0, 1, 1, 1, 2, 0, 1, 0 ) 0.3333333333333333, 0.3333333333333333, 0.3333333333333333;
    ( 0, 1, 1, 1, 2, 0, 1, 1 ) 0.3333333333333333, 0.3333333333333333, 0.3333333333333333;
    ( 0, 1, 1, 1, 2, 1, 0, 0 ) 0.3333333333333333, 0.3333333333333333, 0.3333333333333333;
    ( 0, 1, 1, 1, 2, 1, 0, 1 ) 0.3333333333333333, 0.3333333333333333, 0.3333333333333333;
    ( 0, 1, 1, 1, 2, 1, 1, 0 ) 0.3333333333333333, 0.3333333333333333, 0.3333333333333333;
    ( 0, 1, 1, 1, 2, 1, 1, 1 ) 0.3333333333333333, 0.3333333333333333, 0.3333333333333333;
    ( 0, 1, 2, 0, 0, 0, 0, 0 ) 0.3333333333333333, 0.3333333333333333, 0.3333333333333333;
    ( 0, 1, 2, 0, 0, 0, 0, 1 ) 0.3333333333333333, 0.3333333333333333, 0.3333333333333333;
    ( 0, 1, 2, 0, 0, 0, 1, 0 ) 0.3333333333333333, 0.3333333333333333, 0.3333333333333333;
    ( 0, 1, 2, 0, 0, 0, 1, 1 ) 0.3333333333333333, 0.3333333333333333, 0.3333333333333333;
    ( 0, 1, 2, 0, 0, 1, 0, 0 ) 0.3333333333333333, 0.3333333333333333, 0.3333333333333333;
    ( 0, 1, 2, 0, 0, 1, 0, 1 ) 0.3333333333333333, 0.3333333333333333, 0.3333333333333333;
    ( 0, 1, 2, 0, 0, 1, 1, 0 ) 0.3333333333333333, 0.3333333333333333, 0.3333333333333333;
    ( 0, 1, 2, 0, 0, 1, 1, 1 ) 0.3333333333333333, 0.3333333333333333, 0.3333333333333333;
    ( 0, 1, 2, 0, 1, 0, 0, 0 ) 0.023255813953488372, 0.9767441860465116, 0.0;
    ( 0, 1, 2, 0, 1, 0, 0, 1 ) 0.3333333333333333, 0.3333333333333333, 0.3333333333333333;
    ( 0, 1, 2, 0, 1, 0, 1, 0 ) 0.01098901098901099, 0.989010989010989, 0.0;
    ( 0, 1, 2, 0, 1, 0, 1, 1 ) 0.3333333333333333, 0.3333333333333333, 0.3333333333333333;
    ( 0, 1, 2, 0, 1, 1, 0, 0 ) 0.3333333333333333, 0.3333333333333333, 0.3333333333333333;
    ( 0, 1, 2, 0, 1, 1, 0, 1 ) 0.3333333333333333, 0.3333333333333333, 0.3333333333333333;
    ( 0, 1, 2, 0, 1, 1, 1, 0 ) 0.3333333333333333, 0.3333333333333333, 0.3333333333333333;
    ( 0, 1, 2, 0, 1, 1, 1, 1 ) 0.3333333333333333, 0.3333333333333333, 0.3333333333333333;
    ( 0, 1, 2, 0, 2, 0, 0, 0 ) 0.3333333333333333, 0.3333333333333333, 0.3333333333333333;
    ( 0, 1, 2, 0, 2, 0, 0, 1 ) 0.3333333333333333, 0.3333333333333333, 0.3333333333333333;
    ( 0, 1, 2, 0, 2, 0, 1, 0 ) 0.3333333333333333, 0.3333333333333333, 0.3333333333333333;
    ( 0, 1, 2, 0, 2, 0, 1, 1 ) 0.3333333333333333, 0.3333333333333333, 0.3333333333333333;
    ( 0, 1, 2, 0, 2, 1, 0, 0 ) 0.3333333333333333, 0.3333333333333333, 0.3333333333333333;
    ( 0, 1, 2, 0, 2, 1, 0, 1 ) 0.3333333333333333, 0.3333333333333333, 0.3333333333333333;
    ( 0, 1, 2, 0, 2, 1, 1, 0 ) 0.3333333333333333, 0.3333333333333333, 0.3333333333333333;
    ( 0, 1, 2, 0, 2, 1, 1, 1 ) 0.3333333333333333, 0.3333333333333333, 0.3333333333333333;
    ( 0, 1, 2, 1, 0, 0, 0, 0 ) 0.3333333333333333, 0.3333333333333333, 0.3333333333333333;
    ( 0, 1, 2, 1, 0, 0, 0, 1 ) 0.3333333333333333, 0.3333333333333333, 0.3333333333333333;
    ( 0, 1, 2, 1, 0, 0, 1, 0 ) 0.3333333333333333, 0.3333333333333333, 0.3333333333333333;
    ( 0, 1, 2, 1, 0, 0, 1, 1 ) 0.3333333333333333, 0.3333333333333333, 0.3333333333333333;
    ( 0, 1, 2, 1, 0, 1, 0, 0 ) 0.3333333333333333, 0.3333333333333333, 0.3333333333333333;
    ( 0, 1, 2, 1, 0, 1, 0, 1 ) 0.3333333333333333, 0.3333333333333333, 0.3333333333333333;
    ( 0, 1, 2, 1, 0, 1, 1, 0 ) 0.3333333333333333, 0.3333333333333333, 0.3333333333333333;
    ( 0, 1, 2, 1, 0, 1, 1, 1 ) 0.3333333333333333, 0.3333333333333333, 0.3333333333333333;
    ( 0, 1, 2, 1, 1, 0, 0, 0 ) 0.3333333333333333, 0.3333333333333333, 0.3333333333333333;
    ( 0, 1, 2, 1, 1, 0, 0, 1 ) 0.3333333333333333, 0.3333333333333333, 0.3333333333333333;
    ( 0, 1, 2, 1, 1, 0, 1, 0 ) 0.3333333333333333, 0.3333333333333333, 0.3333333333333333;
    ( 0, 1, 2, 1, 1, 0, 1, 1 ) 0.3333333333333333, 0.3333333333333333, 0.3333333333333333;
    ( 0, 1, 2, 1, 1, 1, 0, 0 ) 0.3333333333333333, 0.3333333333333333, 0.3333333333333333;
    ( 0, 1, 2, 1, 1, 1, 0, 1 ) 0.3333333333333333, 0.3333333333333333, 0.3333333333333333;
    ( 0, 1, 2, 1, 1, 1, 1, 0 ) 0.3333333333333333, 0.3333333333333333, 0.3333333333333333;
    ( 0, 1, 2, 1, 1, 1, 1, 1 ) 0.3333333333333333, 0.3333333333333333, 0.3333333333333333;
    ( 0, 1, 2, 1, 2, 0, 0, 0 ) 0.3333333333333333, 0.3333333333333333, 0.3333333333333333;
    ( 0, 1, 2, 1, 2, 0, 0, 1 ) 0.3333333333333333, 0.3333333333333333, 0.3333333333333333;
    ( 0, 1, 2, 1, 2, 0, 1, 0 ) 0.3333333333333333, 0.3333333333333333, 0.3333333333333333;
    ( 0, 1, 2, 1, 2, 0, 1, 1 ) 0.3333333333333333, 0.3333333333333333, 0.3333333333333333;
    ( 0, 1, 2, 1, 2, 1, 0, 0 ) 0.3333333333333333, 0.3333333333333333, 0.3333333333333333;
    ( 0, 1, 2, 1, 2, 1, 0, 1 ) 0.3333333333333333, 0.3333333333333333, 0.3333333333333333;
    ( 0, 1, 2, 1, 2, 1, 1, 0 ) 0.3333333333333333, 0.3333333333333333, 0.3333333333333333;
    ( 0, 1, 2, 1, 2, 1, 1, 1 ) 0.3333333333333333, 0.3333333333333333, 0.3333333333333333;
    ( 0, 2, 0, 0, 0, 0, 0, 0 ) 0.3333333333333333, 0.3333333333333333, 0.3333333333333333;
    ( 0, 2, 0, 0, 0, 0, 0, 1 ) 0.3333333333333333, 0.3333333333333333, 0.3333333333333333;
    ( 0, 2, 0, 0, 0, 0, 1, 0 ) 0.0, 1.0, 0.0;
    ( 0, 2, 0, 0, 0, 0, 1, 1 ) 0.0, 1.0, 0.0;
    ( 0, 2, 0, 0, 0, 1, 0, 0 ) 0.3333333333333333, 0.3333333333333333, 0.3333333333333333;
    ( 0, 2, 0, 0, 0, 1, 0, 1 ) 0.3333333333333333, 0.3333333333333333, 0.3333333333333333;
    ( 0, 2, 0, 0, 0, 1, 1, 0 ) 0.3333333333333333, 0.3333333333333333, 0.3333333333333333;
    ( 0, 2, 0, 0, 0, 1, 1, 1 ) 0.3333333333333333, 0.3333333333333333, 0.3333333333333333;
    ( 0, 2, 0, 0, 1, 0, 0, 0 ) 0.026755852842809364, 0.9732441471571907, 0.0;
    ( 0, 2, 0, 0, 1, 0, 0, 1 ) 0.3333333333333333, 0.3333333333333333, 0.3333333333333333;
    ( 0, 2, 0, 0, 1, 0, 1, 0 ) 0.02040816326530612, 0.9795918367346939, 0.0;
    ( 0, 2, 0, 0, 1, 0, 1, 1 ) 0.1111111111111111, 0.8888888888888888, 0.0;
    ( 0, 2, 0, 0, 1, 1, 0, 0 ) 0.3333333333333333, 0.3333333333333333, 0.3333333333333333;
    ( 0, 2, 0, 0, 1, 1, 0, 1 ) 0.3333333333333333, 0.3333333333333333, 0.3333333333333333;
    ( 0, 2, 0, 0, 1, 1, 1, 0 ) 0.0, 1.0, 0.0;
    ( 0, 2, 0, 0, 1, 1, 1, 1 ) 0.3333333333333333, 0.3333333333333333, 0.3333333333333333;
    ( 0, 2, 0, 0, 2, 0, 0, 0 ) 0.0, 1.0, 0.0;
    ( 0, 2, 0, 0, 2, 0, 0, 1 ) 0.3333333333333333, 0.3333333333333333, 0.3333333333333333;
    ( 0, 2, 0, 0, 2, 0, 1, 0 ) 0.0, 1.0, 0.0;
    ( 0, 2, 0, 0, 2, 0, 1, 1 ) 0.3333333333333333, 0.3333333333333333, 0.3333333333333333;
    ( 0, 2, 0, 0, 2, 1, 0, 0 ) 0.3333333333333333, 0.3333333333333333, 0.3333333333333333;
    ( 0, 2, 0, 0, 2, 1, 0, 1 ) 0.3333333333333333, 0.3333333333333333, 0.3333333333333333;
    ( 0, 2, 0, 0, 2, 1, 1, 0 ) 0.3333333333333333, 0.3333333333333333, 0.3333333333333333;
    ( 0, 2, 0, 0, 2, 1, 1, 1 ) 0.3333333333333333, 0.3333333333333333, 0.3333333333333333;
    ( 0, 2, 0, 1, 0, 0, 0, 0 ) 0.3333333333333333, 0.3333333333333333, 0.3333333333333333;
    ( 0, 2, 0, 1, 0, 0, 0, 1 ) 0.3333333333333333, 0.3333333333333333, 0.3333333333333333;
    ( 0, 2, 0, 1, 0, 0, 1, 0 ) 0.3333333333333333, 0.3333333333333333, 0.3333333333333333;
    ( 0, 2, 0, 1, 0, 0, 1, 1 ) 0.3333333333333333, 0.3333333333333333, 0.3333333333333333;
    ( 0, 2, 0, 1, 0, 1, 0, 0 ) 0.3333333333333333, 0.3333333333333333, 0.3333333333333333;
    ( 0, 2, 0, 1, 0, 1, 0, 1 ) 0.3333333333333333, 0.3333333333333333, 0.3333333333333333;
    ( 0, 2, 0, 1, 0, 1, 1, 0 ) 0.3333333333333333, 0.3333333333333333, 0.3333333333333333;
    ( 0, 2, 0, 1, 0, 1, 1, 1 ) 0.3333333333333333, 0.3333333333333333, 0.3333333333333333;
    ( 0, 2, 0, 1, 1, 0, 0, 0 ) 0.0, 1.0, 0.0;
    ( 0, 2, 0, 1, 1, 0, 0, 1 ) 0.3333333333333333, 0.3333333333333333, 0.3333333333333333;
    ( 0, 2, 0, 1, 1, 0, 1, 0 ) 0.0, 1.0, 0.0;
    ( 0, 2, 0, 1, 1, 0, 1, 1 ) 0.3333333333333333, 0.3333333333333333, 0.3333333333333333;
    ( 0, 2, 0, 1, 1, 1, 0, 0 ) 0.3333333333333333, 0.3333333333333333, 0.3333333333333333;
    ( 0, 2, 0, 1, 1, 1, 0, 1 ) 0.3333333333333333, 0.3333333333333333, 0.3333333333333333;
    ( 0, 2, 0, 1, 1, 1, 1, 0 ) 0.3333333333333333, 0.3333333333333333, 0.3333333333333333;
    ( 0, 2, 0, 1, 1, 1, 1, 1 ) 0.3333333333333333, 0.3333333333333333, 0.3333333333333333;
    ( 0, 2, 0, 1, 2, 0, 0, 0 ) 0.3333333333333333, 0.3333333333333333, 0.3333333333333333;
    ( 0, 2, 0, 1, 2, 0, 0, 1 ) 0.3333333333333333, 0.3333333333333333, 0.3333333333333333;
    ( 0, 2, 0, 1, 2, 0, 1, 0 ) 0.3333333333333333, 0.3333333333333333, 0.3333333333333333;
    ( 0, 2, 0, 1, 2, 0, 1, 1 ) 0.3333333333333333, 0.3333333333333333, 0.3333333333333333;
    ( 0, 2, 0, 1, 2, 1, 0, 0 ) 0.3333333333333333, 0.3333333333333333, 0.3333333333333333;
    ( 0, 2, 0, 1, 2, 1, 0, 1 ) 0.3333333333333333, 0.3333333333333333, 0.3333333333333333;
    ( 0, 2, 0, 1, 2, 1, 1, 0 ) 0.3333333333333333, 0.3333333333333333, 0.3333333333333333;
    ( 0, 2, 0, 1, 2, 1, 1, 1 ) 0.3333333333333333, 0.3333333333333333, 0.3333333333333333;
    ( 0, 2, 1, 0, 0, 0, 0, 0 ) 0.3333333333333333, 0.3333333333333333, 0.3333333333333333;
    ( 0, 2, 1, 0, 0, 0, 0, 1 ) 0.3333333333333333, 0.3333333333333333, 0.3333333333333333;
    ( 0, 2, 1, 0, 0, 0, 1, 0 ) 0.0, 1.0, 0.0;
    ( 0, 2, 1, 0, 0, 0, 1, 1 ) 0.3333333333333333, 0.3333333333333333, 0.3333333333333333;
    ( 0, 2, 1, 0, 0, 1, 0, 0 ) 0.3333333333333333, 0.3333333333333333, 0.3333333333333333;
    ( 0, 2, 1, 0, 0, 1, 0, 1 ) 0.3333333333333333, 0.3333333333333333, 0.3333333333333333;
    ( 0, 2, 1, 0, 0, 1, 1, 0 ) 0.3333333333333333, 0.3333333333333333, 0.3333333333333333;
    ( 0, 2, 1, 0, 0, 1, 1, 1 ) 0.3333333333333333, 0.3333333333333333, 0.3333333333333333;
    ( 0, 2, 1, 0, 1, 0, 0, 0 ) 0.028070175438596492, 0.9719298245614035, 0.0;
    ( 0, 2, 1, 0, 1, 0, 0, 1 ) 0.3333333333333333, 0.3333333333333333, 0.3333333333333333;
    ( 0, 2, 1, 0, 1, 0, 1, 0 ) 0.01601423487544484, 0.9822064056939501, 0.0017793594306049821;
    ( 0, 2, 1, 0, 1, 0, 1, 1 ) 0.0, 1.0, 0.0;
    ( 0, 2, 1, 0, 1, 1, 0, 0 ) 0.0, 1.0, 0.0;
    ( 0, 2, 1, 0, 1, 1, 0, 1 ) 0.3333333333333333, 0.3333333333333333, 0.3333333333333333;
    ( 0, 2, 1, 0, 1, 1, 1, 0 ) 0.0, 1.0, 0.0;
    ( 0, 2, 1, 0, 1, 1, 1, 1 ) 0.3333333333333333, 0.3333333333333333, 0.3333333333333333;
    ( 0, 2, 1, 0, 2, 0, 0, 0 ) 0.0, 1.0, 0.0;
    ( 0, 2, 1, 0, 2, 0, 0, 1 ) 0.3333333333333333, 0.3333333333333333, 0.3333333333333333;
    ( 0, 2, 1, 0, 2, 0, 1, 0 ) 0.0, 1.0, 0.0;
    ( 0, 2, 1, 0, 2, 0, 1, 1 ) 0.0, 1.0, 0.0;
    ( 0, 2, 1, 0, 2, 1, 0, 0 ) 0.3333333333333333, 0.3333333333333333, 0.3333333333333333;
    ( 0, 2, 1, 0, 2, 1, 0, 1 ) 0.3333333333333333, 0.3333333333333333, 0.3333333333333333;
    ( 0, 2, 1, 0, 2, 1, 1, 0 ) 0.3333333333333333, 0.3333333333333333, 0.3333333333333333;
    ( 0, 2, 1, 0, 2, 1, 1, 1 ) 0.3333333333333333, 0.3333333333333333, 0.3333333333333333;
    ( 0, 2, 1, 1, 0, 0, 0, 0 ) 0.3333333333333333, 0.3333333333333333, 0.3333333333333333;
    ( 0, 2, 1, 1, 0, 0, 0, 1 ) 0.3333333333333333, 0.3333333333333333, 0.3333333333333333;
    ( 0, 2, 1, 1, 0, 0, 1, 0 ) 0.3333333333333333, 0.3333333333333333, 0.3333333333333333;
    ( 0, 2, 1, 1, 0, 0, 1, 1 ) 0.3333333333333333, 0.3333333333333333, 0.3333333333333333;
    ( 0, 2, 1, 1, 0, 1, 0, 0 ) 0.3333333333333333, 0.3333333333333333, 0.3333333333333333;
    ( 0, 2, 1, 1, 0, 1, 0, 1 ) 0.3333333333333333, 0.3333333333333333, 0.3333333333333333;
    ( 0, 2, 1, 1, 0, 1, 1, 0 ) 0.3333333333333333, 0.3333333333333333, 0.3333333333333333;
    ( 0, 2, 1, 1, 0, 1, 1, 1 ) 0.3333333333333333, 0.3333333333333333, 0.3333333333333333;
    ( 0, 2, 1, 1, 1, 0, 0, 0 ) 0.0, 1.0, 0.0;
    ( 0, 2, 1, 1, 1, 0, 0, 1 ) 0.3333333333333333, 0.3333333333333333, 0.3333333333333333;
    ( 0, 2, 1, 1, 1, 0, 1, 0 ) 0.0, 1.0, 0.0;
    ( 0, 2, 1, 1, 1, 0, 1, 1 ) 0.3333333333333333, 0.3333333333333333, 0.3333333333333333;
    ( 0, 2, 1, 1, 1, 1, 0, 0 ) 0.3333333333333333, 0.3333333333333333, 0.3333333333333333;
    ( 0, 2, 1, 1, 1, 1, 0, 1 ) 0.3333333333333333, 0.3333333333333333, 0.3333333333333333;
    ( 0, 2, 1, 1, 1, 1, 1, 0 ) 0.3333333333333333, 0.3333333333333333, 0.3333333333333333;
    ( 0, 2, 1, 1, 1, 1, 1, 1 ) 0.3333333333333333, 0.3333333333333333, 0.3333333333333333;
    ( 0, 2, 1, 1, 2, 0, 0, 0 ) 0.3333333333333333, 0.3333333333333333, 0.3333333333333333;
    ( 0, 2, 1, 1, 2, 0, 0, 1 ) 0.3333333333333333, 0.3333333333333333, 0.3333333333333333;
    ( 0, 2, 1, 1, 2, 0, 1, 0 ) 0.0, 1.0, 0.0;
    ( 0, 2, 1, 1, 2, 0, 1, 1 ) 0.3333333333333333, 0.3333333333333333, 0.3333333333333333;
    ( 0, 2, 1, 1, 2, 1, 0, 0 ) 0.3333333333333333, 0.3333333333333333, 0.3333333333333333;
    ( 0, 2, 1, 1, 2, 1, 0, 1 ) 0.3333333333333333, 0.3333333333333333, 0.3333333333333333;
    ( 0, 2, 1, 1, 2, 1, 1, 0 ) 0.3333333333333333, 0.3333333333333333, 0.3333333333333333;
    ( 0, 2, 1, 1, 2, 1, 1, 1 ) 0.3333333333333333, 0.3333333333333333, 0.3333333333333333;
    ( 0, 2, 2, 0, 0, 0, 0, 0 ) 0.3333333333333333, 0.3333333333333333, 0.3333333333333333;
    ( 0, 2, 2, 0, 0, 0, 0, 1 ) 0.3333333333333333, 0.3333333333333333, 0.3333333333333333;
    ( 0, 2, 2, 0, 0, 0, 1, 0 ) 0.3333333333333333, 0.3333333333333333, 0.3333333333333333;
    ( 0, 2, 2, 0, 0, 0, 1, 1 ) 0.3333333333333333, 0.3333333333333333, 0.3333333333333333;
    ( 0, 2, 2, 0, 0, 1, 0, 0 ) 0.3333333333333333, 0.3333333333333333, 0.3333333333333333;
    ( 0, 2, 2, 0, 0, 1, 0, 1 ) 0.3333333333333333, 0.3333333333333333, 0.3333333333333333;
    ( 0, 2, 2, 0, 0, 1, 1, 0 ) 0.3333333333333333, 0.3333333333333333, 0.3333333333333333;
    ( 0, 2, 2, 0, 0, 1, 1, 1 ) 0.3333333333333333, 0.3333333333333333, 0.3333333333333333;
    ( 0, 2, 2, 0, 1, 0, 0, 0 ) 0.02040816326530612, 0.9795918367346939, 0.0;
    ( 0, 2, 2, 0, 1, 0, 0, 1 ) 0.3333333333333333, 0.3333333333333333, 0.3333333333333333;
    ( 0, 2, 2, 0, 1, 0, 1, 0 ) 0.03669724770642202, 0.9541284403669725, 0.009174311926605505;
    ( 0, 2, 2, 0, 1, 0, 1, 1 ) 0.0, 1.0, 0.0;
    ( 0, 2, 2, 0, 1, 1, 0, 0 ) 0.3333333333333333, 0.3333333333333333, 0.3333333333333333;
    ( 0, 2, 2, 0, 1, 1, 0, 1 ) 0.3333333333333333, 0.3333333333333333, 0.3333333333333333;
    ( 0, 2, 2, 0, 1, 1, 1, 0 ) 0.0, 1.0, 0.0;
    ( 0, 2, 2, 0, 1, 1, 1, 1 ) 0.3333333333333333, 0.3333333333333333, 0.3333333333333333;
    ( 0, 2, 2, 0, 2, 0, 0, 0 ) 0.0, 1.0, 0.0;
    ( 0, 2, 2, 0, 2, 0, 0, 1 ) 0.3333333333333333, 0.3333333333333333, 0.3333333333333333;
    ( 0, 2, 2, 0, 2, 0, 1, 0 ) 0.0, 1.0, 0.0;
    ( 0, 2, 2, 0, 2, 0, 1, 1 ) 0.3333333333333333, 0.3333333333333333, 0.3333333333333333;
    ( 0, 2, 2, 0, 2, 1, 0, 0 ) 0.3333333333333333, 0.3333333333333333, 0.3333333333333333;
    ( 0, 2, 2, 0, 2, 1, 0, 1 ) 0.3333333333333333, 0.3333333333333333, 0.3333333333333333;
    ( 0, 2, 2, 0, 2, 1, 1, 0 ) 0.3333333333333333, 0.3333333333333333, 0.3333333333333333;
    ( 0, 2, 2, 0, 2, 1, 1, 1 ) 0.3333333333333333, 0.3333333333333333, 0.3333333333333333;
    ( 0, 2, 2, 1, 0, 0, 0, 0 ) 0.3333333333333333, 0.3333333333333333, 0.3333333333333333;
    ( 0, 2, 2, 1, 0, 0, 0, 1 ) 0.3333333333333333, 0.3333333333333333, 0.3333333333333333;
    ( 0, 2, 2, 1, 0, 0, 1, 0 ) 0.3333333333333333, 0.3333333333333333, 0.3333333333333333;
    ( 0, 2, 2, 1, 0, 0, 1, 1 ) 0.3333333333333333, 0.3333333333333333, 0.3333333333333333;
    ( 0, 2, 2, 1, 0, 1, 0, 0 ) 0.3333333333333333, 0.3333333333333333, 0.3333333333333333;
    ( 0, 2, 2, 1, 0, 1, 0, 1 ) 0.3333333333333333, 0.3333333333333333, 0.3333333333333333;
    ( 0, 2, 2, 1, 0, 1, 1, 0 ) 0.3333333333333333, 0.3333333333333333, 0.3333333333333333;
    ( 0, 2, 2, 1, 0, 1, 1, 1 ) 0.3333333333333333, 0.3333333333333333, 0.3333333333333333;
    ( 0, 2, 2, 1, 1, 0, 0, 0 ) 0.3333333333333333, 0.3333333333333333, 0.3333333333333333;
    ( 0, 2, 2, 1, 1, 0, 0, 1 ) 0.3333333333333333, 0.3333333333333333, 0.3333333333333333;
    ( 0, 2, 2, 1, 1, 0, 1, 0 ) 0.3333333333333333, 0.3333333333333333, 0.3333333333333333;
    ( 0, 2, 2, 1, 1, 0, 1, 1 ) 0.3333333333333333, 0.3333333333333333, 0.3333333333333333;
    ( 0, 2, 2, 1, 1, 1, 0, 0 ) 0.3333333333333333, 0.3333333333333333, 0.3333333333333333;
    ( 0, 2, 2, 1, 1, 1, 0, 1 ) 0.3333333333333333, 0.3333333333333333, 0.3333333333333333;
    ( 0, 2, 2, 1, 1, 1, 1, 0 ) 0.3333333333333333, 0.3333333333333333, 0.3333333333333333;
    ( 0, 2, 2, 1, 1, 1, 1, 1 ) 0.3333333333333333, 0.3333333333333333, 0.3333333333333333;
    ( 0, 2, 2, 1, 2, 0, 0, 0 ) 0.3333333333333333, 0.3333333333333333, 0.3333333333333333;
    ( 0, 2, 2, 1, 2, 0, 0, 1 ) 0.3333333333333333, 0.3333333333333333, 0.3333333333333333;
    ( 0, 2, 2, 1, 2, 0, 1, 0 ) 0.3333333333333333, 0.3333333333333333, 0.3333333333333333;
    ( 0, 2, 2, 1, 2, 0, 1, 1 ) 0.3333333333333333, 0.3333333333333333, 0.3333333333333333;
    ( 0, 2, 2, 1, 2, 1, 0, 0 ) 0.3333333333333333, 0.3333333333333333, 0.3333333333333333;
    ( 0, 2, 2, 1, 2, 1, 0, 1 ) 0.3333333333333333, 0.3333333333333333, 0.3333333333333333;
    ( 0, 2, 2, 1, 2, 1, 1, 0 ) 0.3333333333333333, 0.3333333333333333, 0.3333333333333333;
    ( 0, 2, 2, 1, 2, 1, 1, 1 ) 0.3333333333333333, 0.3333333333333333, 0.3333333333333333;
    ( 0, 3, 0, 0, 0, 0, 0, 0 ) 0.0, 1.0, 0.0;
    ( 0, 3, 0, 0, 0, 0, 0, 1 ) 0.3333333333333333, 0.3333333333333333, 0.3333333333333333;
    ( 0, 3, 0, 0, 0, 0, 1, 0 ) 0.0, 1.0, 0.0;
    ( 0, 3, 0, 0, 0, 0, 1, 1 ) 0.3333333333333333, 0.3333333333333333, 0.3333333333333333;
    ( 0, 3, 0, 0, 0, 1, 0, 0 ) 0.3333333333333333, 0.3333333333333333, 0.3333333333333333;
    ( 0, 3, 0, 0, 0, 1, 0, 1 ) 0.3333333333333333, 0.3333333333333333, 0.3333333333333333;
    ( 0, 3, 0, 0, 0, 1, 1, 0 ) 0.3333333333333333, 0.3333333333333333, 0.3333333333333333;
    ( 0, 3, 0, 0, 0, 1, 1, 1 ) 0.3333333333333333, 0.3333333333333333, 0.3333333333333333;
    ( 0, 3, 0, 0, 1, 0, 0, 0 ) 0.013605442176870748, 0.9863945578231292, 0.0;
    ( 0, 3, 0, 0, 1, 0, 0, 1 ) 0.3333333333333333, 0.3333333333333333, 0.3333333333333333;
    ( 0, 3, 0, 0, 1, 0, 1, 0 ) 0.019867549668874173, 0.977924944812362, 0.002207505518763797;
    ( 0, 3, 0, 0, 1, 0, 1, 1 ) 0.06666666666666667, 0.9333333333333333, 0.0;
    ( 0, 3, 0, 0, 1, 1, 0, 0 ) 0.3333333333333333, 0.3333333333333333, 0.3333333333333333;
    ( 0, 3, 0, 0, 1, 1, 0, 1 ) 0.3333333333333333, 0.3333333333333333, 0.3333333333333333;
    ( 0, 3, 0, 0, 1, 1, 1, 0 ) 0.0, 1.0, 0.0;
    ( 0, 3, 0, 0, 1, 1, 1, 1 ) 0.3333333333333333, 0.3333333333333333, 0.3333333333333333;
    ( 0, 3, 0, 0, 2, 0, 0, 0 ) 0.0, 1.0, 0.0;
    ( 0, 3, 0, 0, 2, 0, 0, 1 ) 0.3333333333333333, 0.3333333333333333, 0.3333333333333333;
    ( 0, 3, 0, 0, 2, 0, 1, 0 ) 0.08333333333333333, 0.9166666666666666, 0.0;
    ( 0, 3, 0, 0, 2, 0, 1, 1 ) 0.3333333333333333, 0.3333333333333333, 0.3333333333333333;
    ( 0, 3, 0, 0, 2, 1, 0, 0 ) 0.3333333333333333, 0.3333333333333333, 0.3333333333333333;
    ( 0, 3, 0, 0, 2, 1, 0, 1 ) 0.3333333333333333, 0.3333333333333333, 0.3333333333333333;
    ( 0, 3, 0, 0, 2, 1, 1, 0 ) 0.3333333333333333, 0.3333333333333333, 0.3333333333333333;
    ( 0, 3, 0, 0, 2, 1, 1, 1 ) 0.3333333333333333, 0.3333333333333333, 0.3333333333333333;
    ( 0, 3, 0, 1, 0, 0, 0, 0 ) 0.3333333333333333, 0.3333333333333333, 0.3333333333333333;
    ( 0, 3, 0, 1, 0, 0, 0, 1 ) 0.3333333333333333, 0.3333333333333333, 0.3333333333333333;
    ( 0, 3, 0, 1, 0, 0, 1, 0 ) 0.3333333333333333, 0.3333333333333333, 0.3333333333333333;
    ( 0, 3, 0, 1, 0, 0, 1, 1 ) 0.3333333333333333, 0.3333333333333333, 0.3333333333333333;
    ( 0, 3, 0, 1, 0, 1, 0, 0 ) 0.3333333333333333, 0.3333333333333333, 0.3333333333333333;
    ( 0, 3, 0, 1, 0, 1, 0, 1 ) 0.3333333333333333, 0.3333333333333333, 0.3333333333333333;
    ( 0, 3, 0, 1, 0, 1, 1, 0 ) 0.3333333333333333, 0.3333333333333333, 0.3333333333333333;
    ( 0, 3, 0, 1, 0, 1, 1, 1 ) 0.3333333333333333, 0.3333333333333333, 0.3333333333333333;
    ( 0, 3, 0, 1, 1, 0, 0, 0 ) 0.3333333333333333, 0.3333333333333333, 0.3333333333333333;
    ( 0, 3, 0, 1, 1, 0, 0, 1 ) 0.3333333333333333, 0.3333333333333333, 0.3333333333333333;
    ( 0, 3, 0, 1, 1, 0, 1, 0 ) 0.0, 1.0, 0.0;
    ( 0, 3, 0, 1, 1, 0, 1, 1 ) 0.3333333333333333, 0.3333333333333333, 0.3333333333333333;
    ( 0, 3, 0, 1, 1, 1, 0, 0 ) 0.3333333333333333, 0.3333333333333333, 0.3333333333333333;
    ( 0, 3, 0, 1, 1, 1, 0, 1 ) 0.3333333333333333, 0.3333333333333333, 0.3333333333333333;
    ( 0, 3, 0, 1, 1, 1, 1, 0 ) 0.3333333333333333, 0.3333333333333333, 0.3333333333333333;
    ( 0, 3, 0, 1, 1, 1, 1, 1 ) 0.3333333333333333, 0.3333333333333333, 0.3333333333333333;
    ( 0, 3, 0, 1, 2, 0, 0, 0 ) 0.3333333333333333, 0.3333333333333333, 0.3333333333333333;
    ( 0, 3, 0, 1, 2, 0, 0, 1 ) 0.3333333333333333, 0.3333333333333333, 0.3333333333333333;
    ( 0, 3, 0, 1, 2, 0, 1, 0 ) 0.3333333333333333, 0.3333333333333333, 0.3333333333333333;
    ( 0, 3, 0, 1, 2, 0, 1, 1 ) 0.3333333333333333, 0.3333333333333333, 0.3333333333333333;
    ( 0, 3, 0, 1, 2, 1, 0, 0 ) 0.3333333333333333, 0.3333333333333333, 0.3333333333333333;
    ( 0, 3, 0, 1, 2, 1, 0, 1 ) 0.3333333333333333, 0.3333333333333333, 0.3333333333333333;
    ( 0, 3, 0, 1, 2, 1, 1, 0 ) 0.3333333333333333, 0.3333333333333333, 0.3333333333333333;
    ( 0, 3, 0, 1, 2, 1, 1, 1 ) 0.3333333333333333, 0.3333333333333333, 0.3333333333333333;
    ( 0, 3, 1, 0, 0, 0, 0, 0 ) 0.3333333333333333, 0.3333333333333333, 0.3333333333333333;
    ( 0, 3, 1, 0, 0, 0, 0, 1 ) 0.3333333333333333, 0.3333333333333333, 0.3333333333333333;
    ( 0, 3, 1, 0, 0, 0, 1, 0 ) 0.0, 1.0, 0.0;
    ( 0, 3, 1, 0, 0, 0, 1, 1 ) 0.3333333333333333, 0.3333333333333333, 0.3333333333333333;
    ( 0, 3, 1, 0, 0, 1, 0, 0 ) 0.3333333333333333, 0.3333333333333333, 0.3333333333333333;
    ( 0, 3, 1, 0, 0, 1, 0, 1 ) 0.3333333333333333, 0.3333333333333333, 0.3333333333333333;
    ( 0, 3, 1, 0, 0, 1, 1, 0 ) 0.3333333333333333, 0.3333333333333333, 0.3333333333333333;
    ( 0, 3, 1, 0, 0, 1, 1, 1 ) 0.3333333333333333, 0.3333333333333333, 0.3333333333333333;
    ( 0, 3, 1, 0, 1, 0, 0, 0 ) 0.01910828025477707, 0.9808917197452229, 0.0;
    ( 0, 3, 1, 0, 1, 0, 0, 1 ) 0.5, 0.5, 0.0;
    ( 0, 3, 1, 0, 1, 0, 1, 0 ) 0.018691588785046728, 0.9794392523364486, 0.001869158878504673;
    ( 0, 3, 1, 0, 1, 0, 1, 1 ) 0.0, 1.0, 0.0;
    ( 0, 3, 1, 0, 1, 1, 0, 0 ) 0.3333333333333333, 0.3333333333333333, 0.3333333333333333;
    ( 0, 3, 1, 0, 1, 1, 0, 1 ) 0.3333333333333333, 0.3333333333333333, 0.3333333333333333;
    ( 0, 3, 1, 0, 1, 1, 1, 0 ) 0.0, 1.0, 0.0;
    ( 0, 3, 1, 0, 1, 1, 1, 1 ) 0.3333333333333333, 0.3333333333333333, 0.3333333333333333;
    ( 0, 3, 1, 0, 2, 0, 0, 0 ) 0.0, 1.0, 0.0;
    ( 0, 3, 1, 0, 2, 0, 0, 1 ) 0.3333333333333333, 0.3333333333333333, 0.3333333333333333;
    ( 0, 3, 1, 0, 2, 0, 1, 0 ) 0.0, 1.0, 0.0;
    ( 0, 3, 1, 0, 2, 0, 1, 1 ) 0.0, 1.0, 0.0;
    ( 0, 3, 1, 0, 2, 1, 0, 0 ) 0.3333333333333333, 0.3333333333333333, 0.3333333333333333;
    ( 0, 3, 1, 0, 2, 1, 0, 1 ) 0.3333333333333333, 0.3333333333333333, 0.3333333333333333;
    ( 0, 3, 1, 0, 2, 1, 1, 0 ) 0.0, 1.0, 0.0;
    ( 0, 3, 1, 0, 2, 1, 1, 1 ) 0.3333333333333333, 0.3333333333333333, 0.3333333333333333;
    ( 0, 3, 1, 1, 0, 0, 0, 0 ) 0.3333333333333333, 0.3333333333333333, 0.3333333333333333;
    ( 0, 3, 1, 1, 0, 0, 0, 1 ) 0.3333333333333333, 0.3333333333333333, 0.3333333333333333;
    ( 0, 3, 1, 1, 0, 0, 1, 0 ) 0.3333333333333333, 0.3333333333333333, 0.3333333333333333;
    ( 0, 3, 1, 1, 0, 0, 1, 1 ) 0.3333333333333333, 0.3333333333333333, 0.3333333333333333;
    ( 0, 3, 1, 1, 0, 1, 0, 0 ) 0.3333333333333333, 0.3333333333333333, 0.3333333333333333;
    ( 0, 3, 1, 1, 0, 1, 0, 1 ) 0.3333333333333333, 0.3333333333333333, 0.3333333333333333;
    ( 0, 3, 1, 1, 0, 1, 1, 0 ) 0.3333333333333333, 0.3333333333333333, 0.3333333333333333;
    ( 0, 3, 1, 1, 0, 1, 1, 1 ) 0.3333333333333333, 0.3333333333333333, 0.3333333333333333;
    ( 0, 3, 1, 1, 1, 0, 0, 0 ) 0.3333333333333333, 0.3333333333333333, 0.3333333333333333;
    ( 0, 3, 1, 1, 1, 0, 0, 1 ) 0.3333333333333333, 0.3333333333333333, 0.3333333333333333;
    ( 0, 3, 1, 1, 1, 0, 1, 0 ) 0.0, 1.0, 0.0;
    ( 0, 3, 1, 1, 1, 0, 1, 1 ) 0.3333333333333333, 0.3333333333333333, 0.3333333333333333;
    ( 0, 3, 1, 1, 1, 1, 0, 0 ) 0.3333333333333333, 0.3333333333333333, 0.3333333333333333;
    ( 0, 3, 1, 1, 1, 1, 0, 1 ) 0.3333333333333333, 0.3333333333333333, 0.3333333333333333;
    ( 0, 3, 1, 1, 1, 1, 1, 0 ) 0.3333333333333333, 0.3333333333333333, 0.3333333333333333;
    ( 0, 3, 1, 1, 1, 1, 1, 1 ) 0.3333333333333333, 0.3333333333333333, 0.3333333333333333;
    ( 0, 3, 1, 1, 2, 0, 0, 0 ) 0.3333333333333333, 0.3333333333333333, 0.3333333333333333;
    ( 0, 3, 1, 1, 2, 0, 0, 1 ) 0.3333333333333333, 0.3333333333333333, 0.3333333333333333;
    ( 0, 3, 1, 1, 2, 0, 1, 0 ) 0.3333333333333333, 0.3333333333333333, 0.3333333333333333;
    ( 0, 3, 1, 1, 2, 0, 1, 1 ) 0.3333333333333333, 0.3333333333333333, 0.3333333333333333;
    ( 0, 3, 1, 1, 2, 1, 0, 0 ) 0.3333333333333333, 0.3333333333333333, 0.3333333333333333;
    ( 0, 3, 1, 1, 2, 1, 0, 1 ) 0.3333333333333333, 0.3333333333333333, 0.3333333333333333;
    ( 0, 3, 1, 1, 2, 1, 1, 0 ) 0.3333333333333333, 0.3333333333333333, 0.3333333333333333;
    ( 0, 3, 1, 1, 2, 1, 1, 1 ) 0.3333333333333333, 0.3333333333333333, 0.3333333333333333;
    ( 0, 3, 2, 0, 0, 0, 0, 0 ) 0.3333333333333333, 0.3333333333333333, 0.3333333333333333;
    ( 0, 3, 2, 0, 0, 0, 0, 1 ) 0.3333333333333333, 0.3333333333333333, 0.3333333333333333;
    ( 0, 3, 2, 0, 0, 0, 1, 0 ) 0.0, 1.0, 0.0;
    ( 0, 3, 2, 0, 0, 0, 1, 1 ) 0.3333333333333333, 0.3333333333333333, 0.3333333333333333;
    ( 0, 3, 2, 0, 0, 1, 0, 0 ) 0.3333333333333333, 0.3333333333333333, 0.3333333333333333;
    ( 0, 3, 2, 0, 0, 1, 0, 1 ) 0.3333333333333333, 0.3333333333333333, 0.3333333333333333;
    ( 0, 3, 2, 0, 0, 1, 1, 0 ) 0.3333333333333333, 0.3333333333333333, 0.3333333333333333;
    ( 0, 3, 2, 0, 0, 1, 1, 1 ) 0.3333333333333333, 0.3333333333333333, 0.3333333333333333;
    ( 0, 3, 2, 0, 1, 0, 0, 0 ) 0.038461538461538464, 0.9615384615384616, 0.0;
    ( 0, 3, 2, 0, 1, 0, 0, 1 ) 0.3333333333333333, 0.3333333333333333, 0.3333333333333333;
    ( 0, 3, 2, 0, 1, 0, 1, 0 ) 0.026785714285714284, 0.9732142857142857, 0.0;
    ( 0, 3, 2, 0, 1, 0, 1, 1 ) 0.0, 1.0, 0.0;
    ( 0, 3, 2, 0, 1, 1, 0, 0 ) 0.3333333333333333, 0.3333333333333333, 0.3333333333333333;
    ( 0, 3, 2, 0, 1, 1, 0, 1 ) 0.3333333333333333, 0.3333333333333333, 0.3333333333333333;
    ( 0, 3, 2, 0, 1, 1, 1, 0 ) 0.3333333333333333, 0.3333333333333333, 0.3333333333333333;
    ( 0, 3, 2, 0, 1, 1, 1, 1 ) 0.3333333333333333, 0.3333333333333333, 0.3333333333333333;
    ( 0, 3, 2, 0, 2, 0, 0, 0 ) 0.0, 1.0, 0.0;
    ( 0, 3, 2, 0, 2, 0, 0, 1 ) 0.3333333333333333, 0.3333333333333333, 0.3333333333333333;
    ( 0, 3, 2, 0, 2, 0, 1, 0 ) 0.0, 1.0, 0.0;
    ( 0, 3, 2, 0, 2, 0, 1, 1 ) 0.3333333333333333, 0.3333333333333333, 0.3333333333333333;
    ( 0, 3, 2, 0, 2, 1, 0, 0 ) 0.3333333333333333, 0.3333333333333333, 0.3333333333333333;
    ( 0, 3, 2, 0, 2, 1, 0, 1 ) 0.3333333333333333, 0.3333333333333333, 0.3333333333333333;
    ( 0, 3, 2, 0, 2, 1, 1, 0 ) 0.3333333333333333, 0.3333333333333333, 0.3333333333333333;
    ( 0, 3, 2, 0, 2, 1, 1, 1 ) 0.3333333333333333, 0.3333333333333333, 0.3333333333333333;
    ( 0, 3, 2, 1, 0, 0, 0, 0 ) 0.3333333333333333, 0.3333333333333333, 0.3333333333333333;
    ( 0, 3, 2, 1, 0, 0, 0, 1 ) 0.3333333333333333, 0.3333333333333333, 0.3333333333333333;
    ( 0, 3, 2, 1, 0, 0, 1, 0 ) 0.3333333333333333, 0.3333333333333333, 0.3333333333333333;
    ( 0, 3, 2, 1, 0, 0, 1, 1 ) 0.3333333333333333, 0.3333333333333333, 0.3333333333333333;
    ( 0, 3, 2, 1, 0, 1, 0, 0 ) 0.3333333333333333, 0.3333333333333333, 0.3333333333333333;
    ( 0, 3, 2, 1, 0, 1, 0, 1 ) 0.3333333333333333, 0.3333333333333333, 0.3333333333333333;
    ( 0, 3, 2, 1, 0, 1, 1, 0 ) 0.3333333333333333, 0.3333333333333333, 0.3333333333333333;
    ( 0, 3, 2, 1, 0, 1, 1, 1 ) 0.3333333333333333, 0.3333333333333333, 0.3333333333333333;
    ( 0, 3, 2, 1, 1, 0, 0, 0 ) 0.3333333333333333, 0.3333333333333333, 0.3333333333333333;
    ( 0, 3, 2, 1, 1, 0, 0, 1 ) 0.3333333333333333, 0.3333333333333333, 0.3333333333333333;
    ( 0, 3, 2, 1, 1, 0, 1, 0 ) 0.3333333333333333, 0.3333333333333333, 0.3333333333333333;
    ( 0, 3, 2, 1, 1, 0, 1, 1 ) 0.3333333333333333, 0.3333333333333333, 0.3333333333333333;
    ( 0, 3, 2, 1, 1, 1, 0, 0 ) 0.3333333333333333, 0.3333333333333333, 0.3333333333333333;
    ( 0, 3, 2, 1, 1, 1, 0, 1 ) 0.3333333333333333, 0.3333333333333333, 0.3333333333333333;
    ( 0, 3, 2, 1, 1, 1, 1, 0 ) 0.3333333333333333, 0.3333333333333333, 0.3333333333333333;
    ( 0, 3, 2, 1, 1, 1, 1, 1 ) 0.3333333333333333, 0.3333333333333333, 0.3333333333333333;
    ( 0, 3, 2, 1, 2, 0, 0, 0 ) 0.3333333333333333, 0.3333333333333333, 0.3333333333333333;
    ( 0, 3, 2, 1, 2, 0, 0, 1 ) 0.3333333333333333, 0.3333333333333333, 0.3333333333333333;
    ( 0, 3, 2, 1, 2, 0, 1, 0 ) 0.3333333333333333, 0.3333333333333333, 0.3333333333333333;
    ( 0, 3, 2, 1, 2, 0, 1, 1 ) 0.3333333333333333, 0.3333333333333333, 0.3333333333333333;
    ( 0, 3, 2, 1, 2, 1, 0, 0 ) 0.3333333333333333, 0.3333333333333333, 0.3333333333333333;
    ( 0, 3, 2, 1, 2, 1, 0, 1 ) 0.3333333333333333, 0.3333333333333333, 0.3333333333333333;
    ( 0, 3, 2, 1, 2, 1, 1, 0 ) 0.3333333333333333, 0.3333333333333333, 0.3333333333333333;
    ( 0, 3, 2, 1, 2, 1, 1, 1 ) 0.3333333333333333, 0.3333333333333333, 0.3333333333333333;
    ( 1, 0, 0, 0, 0, 0, 0, 0 ) 0.3333333333333333, 0.3333333333333333, 0.3333333333333333;
    ( 1, 0, 0, 0, 0, 0, 0, 1 ) 0.3333333333333333, 0.3333333333333333, 0.3333333333333333;
    ( 1, 0, 0, 0, 0, 0, 1, 0 ) 0.0, 1.0, 0.0;
    ( 1, 0, 0, 0, 0, 0, 1, 1 ) 0.3333333333333333, 0.3333333333333333, 0.3333333333333333;
    ( 1, 0, 0, 0, 0, 1, 0, 0 ) 0.3333333333333333, 0.3333333333333333, 0.3333333333333333;
    ( 1, 0, 0, 0, 0, 1, 0, 1 ) 0.3333333333333333, 0.3333333333333333, 0.3333333333333333;
    ( 1, 0, 0, 0, 0, 1, 1, 0 ) 0.3333333333333333, 0.3333333333333333, 0.3333333333333333;
    ( 1, 0, 0, 0, 0, 1, 1, 1 ) 0.3333333333333333, 0.3333333333333333, 0.3333333333333333;
    ( 1, 0, 0, 0, 1, 0, 0, 0 ) 0.0390625, 0.9609375, 0.0;
    ( 1, 0, 0, 0, 1, 0, 0, 1 ) 0.3333333333333333, 0.3333333333333333, 0.3333333333333333;
    ( 1, 0, 0, 0, 1, 0, 1, 0 ) 0.015748031496062992, 0.9803149606299213, 0.003937007874015748;
    ( 1, 0, 0, 0, 1, 0, 1, 1 ) 0.0, 1.0, 0.0;
    ( 1, 0, 0, 0, 1, 1, 0, 0 ) 0.3333333333333333, 0.3333333333333333, 0.3333333333333333;
    ( 1, 0, 0, 0, 1, 1, 0, 1 ) 0.3333333333333333, 0.3333333333333333, 0.3333333333333333;
    ( 1, 0, 0, 0, 1, 1, 1, 0 ) 0.0, 1.0, 0.0;
    ( 1, 0, 0, 0, 1, 1, 1, 1 ) 0.3333333333333333, 0.3333333333333333, 0.3333333333333333;
    ( 1, 0, 0, 0, 2, 0, 0, 0 ) 0.0, 1.0, 0.0;
    ( 1, 0, 0, 0, 2, 0, 0, 1 ) 0.3333333333333333, 0.3333333333333333, 0.3333333333333333;
    ( 1, 0, 0, 0, 2, 0, 1, 0 ) 0.0, 1.0, 0.0;
    ( 1, 0, 0, 0, 2, 0, 1, 1 ) 0.3333333333333333, 0.3333333333333333, 0.3333333333333333;
    ( 1, 0, 0, 0, 2, 1, 0, 0 ) 0.3333333333333333, 0.3333333333333333, 0.3333333333333333;
    ( 1, 0, 0, 0, 2, 1, 0, 1 ) 0.3333333333333333, 0.3333333333333333, 0.3333333333333333;
    ( 1, 0, 0, 0, 2, 1, 1, 0 ) 0.3333333333333333, 0.3333333333333333, 0.3333333333333333;
    ( 1, 0, 0, 0, 2, 1, 1, 1 ) 0.3333333333333333, 0.3333333333333333, 0.3333333333333333;
    ( 1, 0, 0, 1, 0, 0, 0, 0 ) 0.3333333333333333, 0.3333333333333333, 0.3333333333333333;
    ( 1, 0, 0, 1, 0, 0, 0, 1 ) 0.3333333333333333, 0.3333333333333333, 0.3333333333333333;
    ( 1, 0, 0, 1, 0, 0, 1, 0 ) 0.3333333333333333, 0.3333333333333333, 0.3333333333333333;
    ( 1, 0, 0, 1, 0, 0, 1, 1 ) 0.3333333333333333, 0.3333333333333333, 0.3333333333333333;
    ( 1, 0, 0, 1, 0, 1, 0, 0 ) 0.3333333333333333, 0.3333333333333333, 0.3333333333333333;
    ( 1, 0, 0, 1, 0, 1, 0, 1 ) 0.3333333333333333, 0.3333333333333333, 0.3333333333333333;
    ( 1, 0, 0, 1, 0, 1, 1, 0 ) 0.3333333333333333, 0.3333333333333333, 0.3333333333333333;
    ( 1, 0, 0, 1, 0, 1, 1, 1 ) 0.3333333333333333, 0.3333333333333333, 0.3333333333333333;
    ( 1, 0, 0, 1, 1, 0, 0, 0 ) 0.3333333333333333, 0.3333333333333333, 0.3333333333333333;
    ( 1, 0, 0, 1, 1, 0, 0, 1 ) 0.3333333333333333, 0.3333333333333333, 0.3333333333333333;
    ( 1, 0, 0, 1, 1, 0, 1, 0 ) 0.3333333333333333, 0.6666666666666666, 0.0;
    ( 1, 0, 0, 1, 1, 0, 1, 1 ) 0.3333333333333333, 0.3333333333333333, 0.3333333333333333;
    ( 1, 0, 0, 1, 1, 1, 0, 0 ) 0.3333333333333333, 0.3333333333333333, 0.3333333333333333;
    ( 1, 0, 0, 1, 1, 1, 0, 1 ) 0.3333333333333333, 0.3333333333333333, 0.3333333333333333;
    ( 1, 0, 0, 1, 1, 1, 1, 0 ) 0.3333333333333333, 0.3333333333333333, 0.3333333333333333;
    ( 1, 0, 0, 1, 1, 1, 1, 1 ) 0.3333333333333333, 0.3333333333333333, 0.3333333333333333;
    ( 1, 0, 0, 1, 2, 0, 0, 0 ) 0.3333333333333333, 0.3333333333333333, 0.3333333333333333;
    ( 1, 0, 0, 1, 2, 0, 0, 1 ) 0.3333333333333333, 0.3333333333333333, 0.3333333333333333;
    ( 1, 0, 0, 1, 2, 0, 1, 0 ) 0.3333333333333333, 0.3333333333333333, 0.3333333333333333;
    ( 1, 0, 0, 1, 2, 0, 1, 1 ) 0.3333333333333333, 0.3333333333333333, 0.3333333333333333;
    ( 1, 0, 0, 1, 2, 1, 0, 0 ) 0.3333333333333333, 0.3333333333333333, 0.3333333333333333;
    ( 1, 0, 0, 1, 2, 1, 0, 1 ) 0.3333333333333333, 0.3333333333333333, 0.3333333333333333;
    ( 1, 0, 0, 1, 2, 1, 1, 0 ) 0.3333333333333333, 0.3333333333333333, 0.3333333333333333;
    ( 1, 0, 0, 1, 2, 1, 1, 1 ) 0.3333333333333333, 0.3333333333333333, 0.3333333333333333;
    ( 1, 0, 1, 0, 0, 0, 0, 0 ) 0.0, 1.0, 0.0;
    ( 1, 0, 1, 0, 0, 0, 0, 1 ) 0.3333333333333333, 0.3333333333333333, 0.3333333333333333;
    ( 1, 0, 1, 0, 0, 0, 1, 0 ) 0.0, 1.0, 0.0;
    ( 1, 0, 1, 0, 0, 0, 1, 1 ) 0.3333333333333333, 0.3333333333333333, 0.3333333333333333;
    ( 1, 0, 1, 0, 0, 1, 0, 0 ) 0.3333333333333333, 0.3333333333333333, 0.3333333333333333;
    ( 1, 0, 1, 0, 0, 1, 0, 1 ) 0.3333333333333333, 0.3333333333333333, 0.3333333333333333;
    ( 1, 0, 1, 0, 0, 1, 1, 0 ) 0.3333333333333333, 0.3333333333333333, 0.3333333333333333;
    ( 1, 0, 1, 0, 0, 1, 1, 1 ) 0.3333333333333333, 0.3333333333333333, 0.3333333333333333;
    ( 1, 0, 1, 0, 1, 0, 0, 0 ) 0.008064516129032258, 0.9919354838709677, 0.0;
    ( 1, 0, 1, 0, 1, 0, 0, 1 ) 0.3333333333333333, 0.3333333333333333, 0.3333333333333333;
    ( 1, 0, 1, 0, 1, 0, 1, 0 ) 0.024489795918367346, 0.9755102040816327, 0.0;
    ( 1, 0, 1, 0, 1, 0, 1, 1 ) 0.0, 1.0, 0.0;
    ( 1, 0, 1, 0, 1, 1, 0, 0 ) 0.3333333333333333, 0.3333333333333333, 0.3333333333333333;
    ( 1, 0, 1, 0, 1, 1, 0, 1 ) 0.3333333333333333, 0.3333333333333333, 0.3333333333333333;
    ( 1, 0, 1, 0, 1, 1, 1, 0 ) 0.0, 1.0, 0.0;
    ( 1, 0, 1, 0, 1, 1, 1, 1 ) 0.3333333333333333, 0.3333333333333333, 0.3333333333333333;
    ( 1, 0, 1, 0, 2, 0, 0, 0 ) 0.0, 1.0, 0.0;
    ( 1, 0, 1, 0, 2, 0, 0, 1 ) 0.3333333333333333, 0.3333333333333333, 0.3333333333333333;
    ( 1, 0, 1, 0, 2, 0, 1, 0 ) 0.0, 1.0, 0.0;
    ( 1, 0, 1, 0, 2, 0, 1, 1 ) 0.3333333333333333, 0.3333333333333333, 0.3333333333333333;
    ( 1, 0, 1, 0, 2, 1, 0, 0 ) 0.3333333333333333, 0.3333333333333333, 0.3333333333333333;
    ( 1, 0, 1, 0, 2, 1, 0, 1 ) 0.3333333333333333, 0.3333333333333333, 0.3333333333333333;
    ( 1, 0, 1, 0, 2, 1, 1, 0 ) 0.3333333333333333, 0.3333333333333333, 0.3333333333333333;
    ( 1, 0, 1, 0, 2, 1, 1, 1 ) 0.3333333333333333, 0.3333333333333333, 0.3333333333333333;
    ( 1, 0, 1, 1, 0, 0, 0, 0 ) 0.3333333333333333, 0.3333333333333333, 0.3333333333333333;
    ( 1, 0, 1, 1, 0, 0, 0, 1 ) 0.3333333333333333, 0.3333333333333333, 0.3333333333333333;
    ( 1, 0, 1, 1, 0, 0, 1, 0 ) 0.3333333333333333, 0.3333333333333333, 0.3333333333333333;
    ( 1, 0, 1, 1, 0, 0, 1, 1 ) 0.3333333333333333, 0.3333333333333333, 0.3333333333333333;
    ( 1, 0, 1, 1, 0, 1, 0, 0 ) 0.3333333333333333, 0.3333333333333333, 0.3333333333333333;
    ( 1, 0, 1, 1, 0, 1, 0, 1 ) 0.3333333333333333, 0.3333333333333333, 0.3333333333333333;
    ( 1, 0, 1, 1, 0, 1, 1, 0 ) 0.3333333333333333, 0.3333333333333333, 0.3333333333333333;
    ( 1, 0, 1, 1, 0, 1, 1, 1 ) 0.3333333333333333, 0.3333333333333333, 0.3333333333333333;
    ( 1, 0, 1, 1, 1, 0, 0, 0 ) 0.3333333333333333, 0.3333333333333333, 0.3333333333333333;
    ( 1, 0, 1, 1, 1, 0, 0, 1 ) 0.3333333333333333, 0.3333333333333333, 0.3333333333333333;
    ( 1, 0, 1, 1, 1, 0, 1, 0 ) 0.3333333333333333, 0.3333333333333333, 0.3333333333333333;
    ( 1, 0, 1, 1, 1, 0, 1, 1 ) 0.3333333333333333, 0.3333333333333333, 0.3333333333333333;
    ( 1, 0, 1, 1, 1, 1, 0, 0 ) 0.3333333333333333, 0.3333333333333333, 0.3333333333333333;
    ( 1, 0, 1, 1, 1, 1, 0, 1 ) 0.3333333333333333, 0.3333333333333333, 0.3333333333333333;
    ( 1, 0, 1, 1, 1, 1, 1, 0 ) 0.3333333333333333, 0.3333333333333333, 0.3333333333333333;
    ( 1, 0, 1, 1, 1, 1, 1, 1 ) 0.3333333333333333, 0.3333333333333333, 0.3333333333333333;
    ( 1, 0, 1, 1, 2, 0, 0, 0 ) 0.3333333333333333, 0.3333333333333333, 0.3333333333333333;
    ( 1, 0, 1, 1, 2, 0, 0, 1 ) 0.3333333333333333, 0.3333333333333333, 0.3333333333333333;
    ( 1, 0, 1, 1, 2, 0, 1, 0 ) 0.3333333333333333, 0.3333333333333333, 0.3333333333333333;
    ( 1, 0, 1, 1, 2, 0, 1, 1 ) 0.3333333333333333, 0.3333333333333333, 0.3333333333333333;
    ( 1, 0, 1, 1, 2, 1, 0, 0 ) 0.3333333333333333, 0.3333333333333333, 0.3333333333333333;
    ( 1, 0, 1, 1, 2, 1, 0, 1 ) 0.3333333333333333, 0.3333333333333333, 0.3333333333333333;
    ( 1, 0, 1, 1, 2, 1, 1, 0 ) 0.3333333333333333, 0.3333333333333333, 0.3333333333333333;
    ( 1, 0, 1, 1, 2, 1, 1, 1 ) 0.3333333333333333, 0.3333333333333333, 0.3333333333333333;
    ( 1, 0, 2, 0, 0, 0, 0, 0 ) 0.3333333333333333, 0.3333333333333333, 0.3333333333333333;
    ( 1, 0, 2, 0, 0, 0, 0, 1 ) 0.3333333333333333, 0.3333333333333333, 0.3333333333333333;
    ( 1, 0, 2, 0, 0, 0, 1, 0 ) 0.3333333333333333, 0.3333333333333333, 0.3333333333333333;
    ( 1, 0, 2, 0, 0, 0, 1, 1 ) 0.3333333333333333, 0.3333333333333333, 0.3333333333333333;
    ( 1, 0, 2, 0, 0, 1, 0, 0 ) 0.3333333333333333, 0.3333333333333333, 0.3333333333333333;
    ( 1, 0, 2, 0, 0, 1, 0, 1 ) 0.3333333333333333, 0.3333333333333333, 0.3333333333333333;
    ( 1, 0, 2, 0, 0, 1, 1, 0 ) 0.3333333333333333, 0.3333333333333333, 0.3333333333333333;
    ( 1, 0, 2, 0, 0, 1, 1, 1 ) 0.3333333333333333, 0.3333333333333333, 0.3333333333333333;
    ( 1, 0, 2, 0, 1, 0, 0, 0 ) 0.0, 1.0, 0.0;
    ( 1, 0, 2, 0, 1, 0, 0, 1 ) 0.3333333333333333, 0.3333333333333333, 0.3333333333333333;
    ( 1, 0, 2, 0, 1, 0, 1, 0 ) 0.0, 1.0, 0.0;
    ( 1, 0, 2, 0, 1, 0, 1, 1 ) 0.0, 1.0, 0.0;
    ( 1, 0, 2, 0, 1, 1, 0, 0 ) 0.3333333333333333, 0.3333333333333333, 0.3333333333333333;
    ( 1, 0, 2, 0, 1, 1, 0, 1 ) 0.3333333333333333, 0.3333333333333333, 0.3333333333333333;
    ( 1, 0, 2, 0, 1, 1, 1, 0 ) 0.3333333333333333, 0.3333333333333333, 0.3333333333333333;
    ( 1, 0, 2, 0, 1, 1, 1, 1 ) 0.0, 1.0, 0.0;
    ( 1, 0, 2, 0, 2, 0, 0, 0 ) 0.3333333333333333, 0.3333333333333333, 0.3333333333333333;
    ( 1, 0, 2, 0, 2, 0, 0, 1 ) 0.3333333333333333, 0.3333333333333333, 0.3333333333333333;
    ( 1, 0, 2, 0, 2, 0, 1, 0 ) 0.0, 1.0, 0.0;
    ( 1, 0, 2, 0, 2, 0, 1, 1 ) 0.3333333333333333, 0.3333333333333333, 0.3333333333333333;
    ( 1, 0, 2, 0, 2, 1, 0, 0 ) 0.3333333333333333, 0.3333333333333333, 0.3333333333333333;
    ( 1, 0, 2, 0, 2, 1, 0, 1 ) 0.3333333333333333, 0.3333333333333333, 0.3333333333333333;
    ( 1, 0, 2, 0, 2, 1, 1, 0 ) 0.3333333333333333, 0.3333333333333333, 0.3333333333333333;
    ( 1, 0, 2, 0, 2, 1, 1, 1 ) 0.3333333333333333, 0.3333333333333333, 0.3333333333333333;
    ( 1, 0, 2, 1, 0, 0, 0, 0 ) 0.3333333333333333, 0.3333333333333333, 0.3333333333333333;
    ( 1, 0, 2, 1, 0, 0, 0, 1 ) 0.3333333333333333, 0.3333333333333333, 0.3333333333333333;
    ( 1, 0, 2, 1, 0, 0, 1, 0 ) 0.3333333333333333, 0.3333333333333333, 0.3333333333333333;
    ( 1, 0, 2, 1, 0, 0, 1, 1 ) 0.3333333333333333, 0.3333333333333333, 0.3333333333333333;
    ( 1, 0, 2, 1, 0, 1, 0, 0 ) 0.3333333333333333, 0.3333333333333333, 0.3333333333333333;
    ( 1, 0, 2, 1, 0, 1, 0, 1 ) 0.3333333333333333, 0.3333333333333333, 0.3333333333333333;
    ( 1, 0, 2, 1, 0, 1, 1, 0 ) 0.3333333333333333, 0.3333333333333333, 0.3333333333333333;
    ( 1, 0, 2, 1, 0, 1, 1, 1 ) 0.3333333333333333, 0.3333333333333333, 0.3333333333333333;
    ( 1, 0, 2, 1, 1, 0, 0, 0 ) 0.0, 1.0, 0.0;
    ( 1, 0, 2, 1, 1, 0, 0, 1 ) 0.3333333333333333, 0.3333333333333333, 0.3333333333333333;
    ( 1, 0, 2, 1, 1, 0, 1, 0 ) 0.3333333333333333, 0.3333333333333333, 0.3333333333333333;
    ( 1, 0, 2, 1, 1, 0, 1, 1 ) 0.3333333333333333, 0.3333333333333333, 0.3333333333333333;
    ( 1, 0, 2, 1, 1, 1, 0, 0 ) 0.3333333333333333, 0.3333333333333333, 0.3333333333333333;
    ( 1, 0, 2, 1, 1, 1, 0, 1 ) 0.3333333333333333, 0.3333333333333333, 0.3333333333333333;
    ( 1, 0, 2, 1, 1, 1, 1, 0 ) 0.3333333333333333, 0.3333333333333333, 0.3333333333333333;
    ( 1, 0, 2, 1, 1, 1, 1, 1 ) 0.3333333333333333, 0.3333333333333333, 0.3333333333333333;
    ( 1, 0, 2, 1, 2, 0, 0, 0 ) 0.3333333333333333, 0.3333333333333333, 0.3333333333333333;
    ( 1, 0, 2, 1, 2, 0, 0, 1 ) 0.3333333333333333, 0.3333333333333333, 0.3333333333333333;
    ( 1, 0, 2, 1, 2, 0, 1, 0 ) 0.3333333333333333, 0.3333333333333333, 0.3333333333333333;
    ( 1, 0, 2, 1, 2, 0, 1, 1 ) 0.3333333333333333, 0.3333333333333333, 0.3333333333333333;
    ( 1, 0, 2, 1, 2, 1, 0, 0 ) 0.3333333333333333, 0.3333333333333333, 0.3333333333333333;
    ( 1, 0, 2, 1, 2, 1, 0, 1 ) 0.3333333333333333, 0.3333333333333333, 0.3333333333333333;
    ( 1, 0, 2, 1, 2, 1, 1, 0 ) 0.3333333333333333, 0.3333333333333333, 0.3333333333333333;
    ( 1, 0, 2, 1, 2, 1, 1, 1 ) 0.3333333333333333, 0.3333333333333333, 0.3333333333333333;
    ( 1, 1, 0, 0, 0, 0, 0, 0 ) 0.3333333333333333, 0.3333333333333333, 0.3333333333333333;
    ( 1, 1, 0, 0, 0, 0, 0, 1 ) 0.3333333333333333, 0.3333333333333333, 0.3333333333333333;
    ( 1, 1, 0, 0, 0, 0, 1, 0 ) 0.3333333333333333, 0.3333333333333333, 0.3333333333333333;
    ( 1, 1, 0, 0, 0, 0, 1, 1 ) 0.3333333333333333, 0.3333333333333333, 0.3333333333333333;
    ( 1, 1, 0, 0, 0, 1, 0, 0 ) 0.3333333333333333, 0.3333333333333333, 0.3333333333333333;
    ( 1, 1, 0, 0, 0, 1, 0, 1 ) 0.3333333333333333, 0.3333333333333333, 0.3333333333333333;
    ( 1, 1, 0, 0, 0, 1, 1, 0 ) 0.3333333333333333, 0.3333333333333333, 0.3333333333333333;
    ( 1, 1, 0, 0, 0, 1, 1, 1 ) 0.3333333333333333, 0.3333333333333333, 0.3333333333333333;
    ( 1, 1, 0, 0, 1, 0, 0, 0 ) 0.00980392156862745, 0.9901960784313726, 0.0;
    ( 1, 1, 0, 0, 1, 0, 0, 1 ) 0.3333333333333333, 0.3333333333333333, 0.3333333333333333;
    ( 1, 1, 0, 0, 1, 0, 1, 0 ) 0.014925373134328358, 0.9813432835820896, 0.0037313432835820895;
    ( 1, 1, 0, 0, 1, 0, 1, 1 ) 0.0, 1.0, 0.0;
    ( 1, 1, 0, 0, 1, 1, 0, 0 ) 0.3333333333333333, 0.3333333333333333, 0.3333333333333333;
    ( 1, 1, 0, 0, 1, 1, 0, 1 ) 0.3333333333333333, 0.3333333333333333, 0.3333333333333333;
    ( 1, 1, 0, 0, 1, 1, 1, 0 ) 0.0, 1.0, 0.0;
    ( 1, 1, 0, 0, 1, 1, 1, 1 ) 0.3333333333333333, 0.3333333333333333, 0.3333333333333333;
    ( 1, 1, 0, 0, 2, 0, 0, 0 ) 0.0, 1.0, 0.0;
    ( 1, 1, 0, 0, 2, 0, 0, 1 ) 0.3333333333333333, 0.3333333333333333, 0.3333333333333333;
    ( 1, 1, 0, 0, 2, 0, 1, 0 ) 0.0, 1.0, 0.0;
    ( 1, 1, 0, 0, 2, 0, 1, 1 ) 0.3333333333333333, 0.3333333333333333, 0.3333333333333333;
    ( 1, 1, 0, 0, 2, 1, 0, 0 ) 0.3333333333333333, 0.3333333333333333, 0.3333333333333333;
    ( 1, 1, 0, 0, 2, 1, 0, 1 ) 0.3333333333333333, 0.3333333333333333, 0.3333333333333333;
    ( 1, 1, 0, 0, 2, 1, 1, 0 ) 0.3333333333333333, 0.3333333333333333, 0.3333333333333333;
    ( 1, 1, 0, 0, 2, 1, 1, 1 ) 0.3333333333333333, 0.3333333333333333, 0.3333333333333333;
    ( 1, 1, 0, 1, 0, 0, 0, 0 ) 0.3333333333333333, 0.3333333333333333, 0.3333333333333333;
    ( 1, 1, 0, 1, 0, 0, 0, 1 ) 0.3333333333333333, 0.3333333333333333, 0.3333333333333333;
    ( 1, 1, 0, 1, 0, 0, 1, 0 ) 0.3333333333333333, 0.3333333333333333, 0.3333333333333333;
    ( 1, 1, 0, 1, 0, 0, 1, 1 ) 0.3333333333333333, 0.3333333333333333, 0.3333333333333333;
    ( 1, 1, 0, 1, 0, 1, 0, 0 ) 0.3333333333333333, 0.3333333333333333, 0.3333333333333333;
    ( 1, 1, 0, 1, 0, 1, 0, 1 ) 0.3333333333333333, 0.3333333333333333, 0.3333333333333333;
    ( 1, 1, 0, 1, 0, 1, 1, 0 ) 0.3333333333333333, 0.3333333333333333, 0.3333333333333333;
    ( 1, 1, 0, 1, 0, 1, 1, 1 ) 0.3333333333333333, 0.3333333333333333, 0.3333333333333333;
    ( 1, 1, 0, 1, 1, 0, 0, 0 ) 0.3333333333333333, 0.3333333333333333, 0.3333333333333333;
    ( 1, 1, 0, 1, 1, 0, 0, 1 ) 0.3333333333333333, 0.3333333333333333, 0.3333333333333333;
    ( 1, 1, 0, 1, 1, 0, 1, 0 ) 0.0, 1.0, 0.0;
    ( 1, 1, 0, 1, 1, 0, 1, 1 ) 0.3333333333333333, 0.3333333333333333, 0.3333333333333333;
    ( 1, 1, 0, 1, 1, 1, 0, 0 ) 0.3333333333333333, 0.3333333333333333, 0.3333333333333333;
    ( 1, 1, 0, 1, 1, 1, 0, 1 ) 0.3333333333333333, 0.3333333333333333, 0.3333333333333333;
    ( 1, 1, 0, 1, 1, 1, 1, 0 ) 0.3333333333333333, 0.3333333333333333, 0.3333333333333333;
    ( 1, 1, 0, 1, 1, 1, 1, 1 ) 0.3333333333333333, 0.3333333333333333, 0.3333333333333333;
    ( 1, 1, 0, 1, 2, 0, 0, 0 ) 0.3333333333333333, 0.3333333333333333, 0.3333333333333333;
    ( 1, 1, 0, 1, 2, 0, 0, 1 ) 0.3333333333333333, 0.3333333333333333, 0.3333333333333333;
    ( 1, 1, 0, 1, 2, 0, 1, 0 ) 0.3333333333333333, 0.3333333333333333, 0.3333333333333333;
    ( 1, 1, 0, 1, 2, 0, 1, 1 ) 0.3333333333333333, 0.3333333333333333, 0.3333333333333333;
    ( 1, 1, 0, 1, 2, 1, 0, 0 ) 0.3333333333333333, 0.3333333333333333, 0.3333333333333333;
    ( 1, 1, 0, 1, 2, 1, 0, 1 ) 0.3333333333333333, 0.3333333333333333, 0.3333333333333333;
    ( 1, 1, 0, 1, 2, 1, 1, 0 ) 0.3333333333333333, 0.3333333333333333, 0.3333333333333333;
    ( 1, 1, 0, 1, 2, 1, 1, 1 ) 0.3333333333333333, 0.3333333333333333, 0.3333333333333333;
    ( 1, 1, 1, 0, 0, 0, 0, 0 ) 0.3333333333333333, 0.3333333333333333, 0.3333333333333333;
    ( 1, 1, 1, 0, 0, 0, 0, 1 ) 0.3333333333333333, 0.3333333333333333, 0.3333333333333333;
    ( 1, 1, 1, 0, 0, 0, 1, 0 ) 0.0, 1.0, 0.0;
    ( 1, 1, 1, 0, 0, 0, 1, 1 ) 0.3333333333333333, 0.3333333333333333, 0.3333333333333333;
    ( 1, 1, 1, 0, 0, 1, 0, 0 ) 0.3333333333333333, 0.3333333333333333, 0.3333333333333333;
    ( 1, 1, 1, 0, 0, 1, 0, 1 ) 0.3333333333333333, 0.3333333333333333, 0.3333333333333333;
    ( 1, 1, 1, 0, 0, 1, 1, 0 ) 0.3333333333333333, 0.3333333333333333, 0.3333333333333333;
    ( 1, 1, 1, 0, 0, 1, 1, 1 ) 0.3333333333333333, 0.3333333333333333, 0.3333333333333333;
    ( 1, 1, 1, 0, 1, 0, 0, 0 ) 0.011363636363636364, 0.9886363636363636, 0.0;
    ( 1, 1, 1, 0, 1, 0, 0, 1 ) 0.3333333333333333, 0.3333333333333333, 0.3333333333333333;
    ( 1, 1, 1, 0, 1, 0, 1, 0 ) 0.01607717041800643, 0.9839228295819936, 0.0;
    ( 1, 1, 1, 0, 1, 0, 1, 1 ) 0.0, 0.8571428571428571, 0.14285714285714285;
    ( 1, 1, 1, 0, 1, 1, 0, 0 ) 0.3333333333333333, 0.3333333333333333, 0.3333333333333333;
    ( 1, 1, 1, 0, 1, 1, 0, 1 ) 0.3333333333333333, 0.3333333333333333, 0.3333333333333333;
    ( 1, 1, 1, 0, 1, 1, 1, 0 ) 0.0, 1.0, 0.0;
    ( 1, 1, 1, 0, 1, 1, 1, 1 ) 0.0, 1.0, 0.0;
    ( 1, 1, 1, 0, 2, 0, 0, 0 ) 0.0, 1.0, 0.0;
    ( 1, 1, 1, 0, 2, 0, 0, 1 ) 0.3333333333333333, 0.3333333333333333, 0.3333333333333333;
    ( 1, 1, 1, 0, 2, 0, 1, 0 ) 0.0, 1.0, 0.0;
    ( 1, 1, 1, 0, 2, 0, 1, 1 ) 0.0, 1.0, 0.0;
    ( 1, 1, 1, 0, 2, 1, 0, 0 ) 0.3333333333333333, 0.3333333333333333, 0.3333333333333333;
    ( 1, 1, 1, 0, 2, 1, 0, 1 ) 0.3333333333333333, 0.3333333333333333, 0.3333333333333333;
    ( 1, 1, 1, 0, 2, 1, 1, 0 ) 0.3333333333333333, 0.3333333333333333, 0.3333333333333333;
    ( 1, 1, 1, 0, 2, 1, 1, 1 ) 0.3333333333333333, 0.3333333333333333, 0.3333333333333333;
    ( 1, 1, 1, 1, 0, 0, 0, 0 ) 0.3333333333333333, 0.3333333333333333, 0.3333333333333333;
    ( 1, 1, 1, 1, 0, 0, 0, 1 ) 0.3333333333333333, 0.3333333333333333, 0.3333333333333333;
    ( 1, 1, 1, 1, 0, 0, 1, 0 ) 0.3333333333333333, 0.3333333333333333, 0.3333333333333333;
    ( 1, 1, 1, 1, 0, 0, 1, 1 ) 0.3333333333333333, 0.3333333333333333, 0.3333333333333333;
    ( 1, 1, 1, 1, 0, 1, 0, 0 ) 0.3333333333333333, 0.3333333333333333, 0.3333333333333333;
    ( 1, 1, 1, 1, 0, 1, 0, 1 ) 0.3333333333333333, 0.3333333333333333, 0.3333333333333333;
    ( 1, 1, 1, 1, 0, 1, 1, 0 ) 0.3333333333333333, 0.3333333333333333, 0.3333333333333333;
    ( 1, 1, 1, 1, 0, 1, 1, 1 ) 0.3333333333333333, 0.3333333333333333, 0.3333333333333333;
    ( 1, 1, 1, 1, 1, 0, 0, 0 ) 0.3333333333333333, 0.3333333333333333, 0.3333333333333333;
    ( 1, 1, 1, 1, 1, 0, 0, 1 ) 0.3333333333333333, 0.3333333333333333, 0.3333333333333333;
    ( 1, 1, 1, 1, 1, 0, 1, 0 ) 0.3333333333333333, 0.3333333333333333, 0.3333333333333333;
    ( 1, 1, 1, 1, 1, 0, 1, 1 ) 0.3333333333333333, 0.3333333333333333, 0.3333333333333333;
    ( 1, 1, 1, 1, 1, 1, 0, 0 ) 0.3333333333333333, 0.3333333333333333, 0.3333333333333333;
    ( 1, 1, 1, 1, 1, 1, 0, 1 ) 0.3333333333333333, 0.3333333333333333, 0.3333333333333333;
    ( 1, 1, 1, 1, 1, 1, 1, 0 ) 0.3333333333333333, 0.3333333333333333, 0.3333333333333333;
    ( 1, 1, 1, 1, 1, 1, 1, 1 ) 0.3333333333333333, 0.3333333333333333, 0.3333333333333333;
    ( 1, 1, 1, 1, 2, 0, 0, 0 ) 0.3333333333333333, 0.3333333333333333, 0.3333333333333333;
    ( 1, 1, 1, 1, 2, 0, 0, 1 ) 0.3333333333333333, 0.3333333333333333, 0.3333333333333333;
    ( 1, 1, 1, 1, 2, 0, 1, 0 ) 0.3333333333333333, 0.3333333333333333, 0.3333333333333333;
    ( 1, 1, 1, 1, 2, 0, 1, 1 ) 0.3333333333333333, 0.3333333333333333, 0.3333333333333333;
    ( 1, 1, 1, 1, 2, 1, 0, 0 ) 0.3333333333333333, 0.3333333333333333, 0.3333333333333333;
    ( 1, 1, 1, 1, 2, 1, 0, 1 ) 0.3333333333333333, 0.3333333333333333, 0.3333333333333333;
    ( 1, 1, 1, 1, 2, 1, 1, 0 ) 0.3333333333333333, 0.3333333333333333, 0.3333333333333333;
    ( 1, 1, 1, 1, 2, 1, 1, 1 ) 0.3333333333333333, 0.3333333333333333, 0.3333333333333333;
    ( 1, 1, 2, 0, 0, 0, 0, 0 ) 0.3333333333333333, 0.3333333333333333, 0.3333333333333333;
    ( 1, 1, 2, 0, 0, 0, 0, 1 ) 0.3333333333333333, 0.3333333333333333, 0.3333333333333333;
    ( 1, 1, 2, 0, 0, 0, 1, 0 ) 0.3333333333333333, 0.3333333333333333, 0.3333333333333333;
    ( 1, 1, 2, 0, 0, 0, 1, 1 ) 0.3333333333333333, 0.3333333333333333, 0.3333333333333333;
    ( 1, 1, 2, 0, 0, 1, 0, 0 ) 0.3333333333333333, 0.3333333333333333, 0.3333333333333333;
    ( 1, 1, 2, 0, 0, 1, 0, 1 ) 0.3333333333333333, 0.3333333333333333, 0.3333333333333333;
    ( 1, 1, 2, 0, 0, 1, 1, 0 ) 0.3333333333333333, 0.3333333333333333, 0.3333333333333333;
    ( 1, 1, 2, 0, 0, 1, 1, 1 ) 0.3333333333333333, 0.3333333333333333, 0.3333333333333333;
    ( 1, 1, 2, 0, 1, 0, 0, 0 ) 0.0, 1.0, 0.0;
    ( 1, 1, 2, 0, 1, 0, 0, 1 ) 0.3333333333333333, 0.3333333333333333, 0.3333333333333333;
    ( 1, 1, 2, 0, 1, 0, 1, 0 ) 0.03571428571428571, 0.9642857142857143, 0.0;
    ( 1, 1, 2, 0, 1, 0, 1, 1 ) 0.0, 1.0, 0.0;
    ( 1, 1, 2, 0, 1, 1, 0, 0 ) 0.3333333333333333, 0.3333333333333333, 0.3333333333333333;
    ( 1, 1, 2, 0, 1, 1, 0, 1 ) 0.3333333333333333, 0.3333333333333333, 0.3333333333333333;
    ( 1, 1, 2, 0, 1, 1, 1, 0 ) 0.0, 1.0, 0.0;
    ( 1, 1, 2, 0, 1, 1, 1, 1 ) 0.3333333333333333, 0.3333333333333333, 0.3333333333333333;
    ( 1, 1, 2, 0, 2, 0, 0, 0 ) 0.3333333333333333, 0.3333333333333333, 0.3333333333333333;
    ( 1, 1, 2, 0, 2, 0, 0, 1 ) 0.3333333333333333, 0.3333333333333333, 0.3333333333333333;
    ( 1, 1, 2, 0, 2, 0, 1, 0 ) 0.3333333333333333, 0.3333333333333333, 0.3333333333333333;
    ( 1, 1, 2, 0, 2, 0, 1, 1 ) 0.3333333333333333, 0.3333333333333333, 0.3333333333333333;
    ( 1, 1, 2, 0, 2, 1, 0, 0 ) 0.3333333333333333, 0.3333333333333333, 0.3333333333333333;
    ( 1, 1, 2, 0, 2, 1, 0, 1 ) 0.3333333333333333, 0.3333333333333333, 0.3333333333333333;
    ( 1, 1, 2, 0, 2, 1, 1, 0 ) 0.3333333333333333, 0.3333333333333333, 0.3333333333333333;
    ( 1, 1, 2, 0, 2, 1, 1, 1 ) 0.3333333333333333, 0.3333333333333333, 0.3333333333333333;
    ( 1, 1, 2, 1, 0, 0, 0, 0 ) 0.3333333333333333, 0.3333333333333333, 0.3333333333333333;
    ( 1, 1, 2, 1, 0, 0, 0, 1 ) 0.3333333333333333, 0.3333333333333333, 0.3333333333333333;
    ( 1, 1, 2, 1, 0, 0, 1, 0 ) 0.3333333333333333, 0.3333333333333333, 0.3333333333333333;
    ( 1, 1, 2, 1, 0, 0, 1, 1 ) 0.3333333333333333, 0.3333333333333333, 0.3333333333333333;
    ( 1, 1, 2, 1, 0, 1, 0, 0 ) 0.3333333333333333, 0.3333333333333333, 0.3333333333333333;
    ( 1, 1, 2, 1, 0, 1, 0, 1 ) 0.3333333333333333, 0.3333333333333333, 0.3333333333333333;
    ( 1, 1, 2, 1, 0, 1, 1, 0 ) 0.3333333333333333, 0.3333333333333333, 0.3333333333333333;
    ( 1, 1, 2, 1, 0, 1, 1, 1 ) 0.3333333333333333, 0.3333333333333333, 0.3333333333333333;
    ( 1, 1, 2, 1, 1, 0, 0, 0 ) 0.3333333333333333, 0.3333333333333333, 0.3333333333333333;
    ( 1, 1, 2, 1, 1, 0, 0, 1 ) 0.3333333333333333, 0.3333333333333333, 0.3333333333333333;
    ( 1, 1, 2, 1, 1, 0, 1, 0 ) 0.0, 1.0, 0.0;
    ( 1, 1, 2, 1, 1, 0, 1, 1 ) 0.3333333333333333, 0.3333333333333333, 0.3333333333333333;
    ( 1, 1, 2, 1, 1, 1, 0, 0 ) 0.3333333333333333, 0.3333333333333333, 0.3333333333333333;
    ( 1, 1, 2, 1, 1, 1, 0, 1 ) 0.3333333333333333, 0.3333333333333333, 0.3333333333333333;
    ( 1, 1, 2, 1, 1, 1, 1, 0 ) 0.3333333333333333, 0.3333333333333333, 0.3333333333333333;
    ( 1, 1, 2, 1, 1, 1, 1, 1 ) 0.3333333333333333, 0.3333333333333333, 0.3333333333333333;
    ( 1, 1, 2, 1, 2, 0, 0, 0 ) 0.3333333333333333, 0.3333333333333333, 0.3333333333333333;
    ( 1, 1, 2, 1, 2, 0, 0, 1 ) 0.3333333333333333, 0.3333333333333333, 0.3333333333333333;
    ( 1, 1, 2, 1, 2, 0, 1, 0 ) 0.3333333333333333, 0.3333333333333333, 0.3333333333333333;
    ( 1, 1, 2, 1, 2, 0, 1, 1 ) 0.3333333333333333, 0.3333333333333333, 0.3333333333333333;
    ( 1, 1, 2, 1, 2, 1, 0, 0 ) 0.3333333333333333, 0.3333333333333333, 0.3333333333333333;
    ( 1, 1, 2, 1, 2, 1, 0, 1 ) 0.3333333333333333, 0.3333333333333333, 0.3333333333333333;
    ( 1, 1, 2, 1, 2, 1, 1, 0 ) 0.3333333333333333, 0.3333333333333333, 0.3333333333333333;
    ( 1, 1, 2, 1, 2, 1, 1, 1 ) 0.3333333333333333, 0.3333333333333333, 0.3333333333333333;
    ( 1, 2, 0, 0, 0, 0, 0, 0 ) 0.3333333333333333, 0.3333333333333333, 0.3333333333333333;
    ( 1, 2, 0, 0, 0, 0, 0, 1 ) 0.3333333333333333, 0.3333333333333333, 0.3333333333333333;
    ( 1, 2, 0, 0, 0, 0, 1, 0 ) 0.0, 1.0, 0.0;
    ( 1, 2, 0, 0, 0, 0, 1, 1 ) 0.3333333333333333, 0.3333333333333333, 0.3333333333333333;
    ( 1, 2, 0, 0, 0, 1, 0, 0 ) 0.3333333333333333, 0.3333333333333333, 0.3333333333333333;
    ( 1, 2, 0, 0, 0, 1, 0, 1 ) 0.3333333333333333, 0.3333333333333333, 0.3333333333333333;
    ( 1, 2, 0, 0, 0, 1, 1, 0 ) 0.3333333333333333, 0.3333333333333333, 0.3333333333333333;
    ( 1, 2, 0, 0, 0, 1, 1, 1 ) 0.3333333333333333, 0.3333333333333333, 0.3333333333333333;
    ( 1, 2, 0, 0, 1, 0, 0, 0 ) 0.047619047619047616, 0.9523809523809523, 0.0;
    ( 1, 2, 0, 0, 1, 0, 0, 1 ) 0.3333333333333333, 0.3333333333333333, 0.3333333333333333;
    ( 1, 2, 0, 0, 1, 0, 1, 0 ) 0.020348837209302327, 0.9796511627906976, 0.0;
    ( 1, 2, 0, 0, 1, 0, 1, 1 ) 0.0, 1.0, 0.0;
    ( 1, 2, 0, 0, 1, 1, 0, 0 ) 0.3333333333333333, 0.3333333333333333, 0.3333333333333333;
    ( 1, 2, 0, 0, 1, 1, 0, 1 ) 0.3333333333333333, 0.3333333333333333, 0.3333333333333333;
    ( 1, 2, 0, 0, 1, 1, 1, 0 ) 0.0, 1.0, 0.0;
    ( 1, 2, 0, 0, 1, 1, 1, 1 ) 0.0, 1.0, 0.0;
    ( 1, 2, 0, 0, 2, 0, 0, 0 ) 0.0, 1.0, 0.0;
    ( 1, 2, 0, 0, 2, 0, 0, 1 ) 0.3333333333333333, 0.3333333333333333, 0.3333333333333333;
    ( 1, 2, 0, 0, 2, 0, 1, 0 ) 0.0, 1.0, 0.0;
    ( 1, 2, 0, 0, 2, 0, 1, 1 ) 0.3333333333333333, 0.3333333333333333, 0.3333333333333333;
    ( 1, 2, 0, 0, 2, 1, 0, 0 ) 0.3333333333333333, 0.3333333333333333, 0.3333333333333333;
    ( 1, 2, 0, 0, 2, 1, 0, 1 ) 0.3333333333333333, 0.3333333333333333, 0.3333333333333333;
    ( 1, 2, 0, 0, 2, 1, 1, 0 ) 0.3333333333333333, 0.3333333333333333, 0.3333333333333333;
    ( 1, 2, 0, 0, 2, 1, 1, 1 ) 0.3333333333333333, 0.3333333333333333, 0.3333333333333333;
    ( 1, 2, 0, 1, 0, 0, 0, 0 ) 0.3333333333333333, 0.3333333333333333, 0.3333333333333333;
    ( 1, 2, 0, 1, 0, 0, 0, 1 ) 0.3333333333333333, 0.3333333333333333, 0.3333333333333333;
    ( 1, 2, 0, 1, 0, 0, 1, 0 ) 0.3333333333333333, 0.3333333333333333, 0.3333333333333333;
    ( 1, 2, 0, 1, 0, 0, 1, 1 ) 0.3333333333333333, 0.3333333333333333, 0.3333333333333333;
    ( 1, 2, 0, 1, 0, 1, 0, 0 ) 0.3333333333333333, 0.3333333333333333, 0.3333333333333333;
    ( 1, 2, 0, 1, 0, 1, 0, 1 ) 0.3333333333333333, 0.3333333333333333, 0.3333333333333333;
    ( 1, 2, 0, 1, 0, 1, 1, 0 ) 0.3333333333333333, 0.3333333333333333, 0.3333333333333333;
    ( 1, 2, 0, 1, 0, 1, 1, 1 ) 0.3333333333333333, 0.3333333333333333, 0.3333333333333333;
    ( 1, 2, 0, 1, 1, 0, 0, 0 ) 0.3333333333333333, 0.3333333333333333, 0.3333333333333333;
    ( 1, 2, 0, 1, 1, 0, 0, 1 ) 0.3333333333333333, 0.3333333333333333, 0.3333333333333333;
    ( 1, 2, 0, 1, 1, 0, 1, 0 ) 0.3333333333333333, 0.3333333333333333, 0.3333333333333333;
    ( 1, 2, 0, 1, 1, 0, 1, 1 ) 0.3333333333333333, 0.3333333333333333, 0.3333333333333333;
    ( 1, 2, 0, 1, 1, 1, 0, 0 ) 0.3333333333333333, 0.3333333333333333, 0.3333333333333333;
    ( 1, 2, 0, 1, 1, 1, 0, 1 ) 0.3333333333333333, 0.3333333333333333, 0.3333333333333333;
    ( 1, 2, 0, 1, 1, 1, 1, 0 ) 0.3333333333333333, 0.3333333333333333, 0.3333333333333333;
    ( 1, 2, 0, 1, 1, 1, 1, 1 ) 0.3333333333333333, 0.3333333333333333, 0.3333333333333333;
    ( 1, 2, 0, 1, 2, 0, 0, 0 ) 0.3333333333333333, 0.3333333333333333, 0.3333333333333333;
    ( 1, 2, 0, 1, 2, 0, 0, 1 ) 0.3333333333333333, 0.3333333333333333, 0.3333333333333333;
    ( 1, 2, 0, 1, 2, 0, 1, 0 ) 0.3333333333333333, 0.3333333333333333, 0.3333333333333333;
    ( 1, 2, 0, 1, 2, 0, 1, 1 ) 0.3333333333333333, 0.3333333333333333, 0.3333333333333333;
    ( 1, 2, 0, 1, 2, 1, 0, 0 ) 0.3333333333333333, 0.3333333333333333, 0.3333333333333333;
    ( 1, 2, 0, 1, 2, 1, 0, 1 ) 0.3333333333333333, 0.3333333333333333, 0.3333333333333333;
    ( 1, 2, 0, 1, 2, 1, 1, 0 ) 0.3333333333333333, 0.3333333333333333, 0.3333333333333333;
    ( 1, 2, 0, 1, 2, 1, 1, 1 ) 0.3333333333333333, 0.3333333333333333, 0.3333333333333333;
    ( 1, 2, 1, 0, 0, 0, 0, 0 ) 0.3333333333333333, 0.3333333333333333, 0.3333333333333333;
    ( 1, 2, 1, 0, 0, 0, 0, 1 ) 0.3333333333333333, 0.3333333333333333, 0.3333333333333333;
    ( 1, 2, 1, 0, 0, 0, 1, 0 ) 0.3333333333333333, 0.3333333333333333, 0.3333333333333333;
    ( 1, 2, 1, 0, 0, 0, 1, 1 ) 0.3333333333333333, 0.3333333333333333, 0.3333333333333333;
    ( 1, 2, 1, 0, 0, 1, 0, 0 ) 0.3333333333333333, 0.3333333333333333, 0.3333333333333333;
    ( 1, 2, 1, 0, 0, 1, 0, 1 ) 0.3333333333333333, 0.3333333333333333, 0.3333333333333333;
    ( 1, 2, 1, 0, 0, 1, 1, 0 ) 0.3333333333333333, 0.3333333333333333, 0.3333333333333333;
    ( 1, 2, 1, 0, 0, 1, 1, 1 ) 0.3333333333333333, 0.3333333333333333, 0.3333333333333333;
    ( 1, 2, 1, 0, 1, 0, 0, 0 ) 0.031914893617021274, 0.9680851063829787, 0.0;
    ( 1, 2, 1, 0, 1, 0, 0, 1 ) 0.3333333333333333, 0.3333333333333333, 0.3333333333333333;
    ( 1, 2, 1, 0, 1, 0, 1, 0 ) 0.03807106598984772, 0.9619289340101523, 0.0;
    ( 1, 2, 1, 0, 1, 0, 1, 1 ) 0.0, 1.0, 0.0;
    ( 1, 2, 1, 0, 1, 1, 0, 0 ) 0.3333333333333333, 0.3333333333333333, 0.3333333333333333;
    ( 1, 2, 1, 0, 1, 1, 0, 1 ) 0.3333333333333333, 0.3333333333333333, 0.3333333333333333;
    ( 1, 2, 1, 0, 1, 1, 1, 0 ) 0.0, 1.0, 0.0;
    ( 1, 2, 1, 0, 1, 1, 1, 1 ) 0.0, 1.0, 0.0;
    ( 1, 2, 1, 0, 2, 0, 0, 0 ) 0.0, 1.0, 0.0;
    ( 1, 2, 1, 0, 2, 0, 0, 1 ) 0.3333333333333333, 0.3333333333333333, 0.3333333333333333;
    ( 1, 2, 1, 0, 2, 0, 1, 0 ) 0.0, 1.0, 0.0;
    ( 1, 2, 1, 0, 2, 0, 1, 1 ) 0.3333333333333333, 0.3333333333333333, 0.3333333333333333;
    ( 1, 2, 1, 0, 2, 1, 0, 0 ) 0.3333333333333333, 0.3333333333333333, 0.3333333333333333;
    ( 1, 2, 1, 0, 2, 1, 0, 1 ) 0.3333333333333333, 0.3333333333333333, 0.3333333333333333;
    ( 1, 2, 1, 0, 2, 1, 1, 0 ) 0.3333333333333333, 0.3333333333333333, 0.3333333333333333;
    ( 1, 2, 1, 0, 2, 1, 1, 1 ) 0.3333333333333333, 0.3333333333333333, 0.3333333333333333;
    ( 1, 2, 1, 1, 0, 0, 0, 0 ) 0.3333333333333333, 0.3333333333333333, 0.3333333333333333;
    ( 1, 2, 1, 1, 0, 0, 0, 1 ) 0.3333333333333333, 0.3333333333333333, 0.3333333333333333;
    ( 1, 2, 1, 1, 0, 0, 1, 0 ) 0.3333333333333333, 0.3333333333333333, 0.3333333333333333;
    ( 1, 2, 1, 1, 0, 0, 1, 1 ) 0.3333333333333333, 0.3333333333333333, 0.3333333333333333;
    ( 1, 2, 1, 1, 0, 1, 0, 0 ) 0.3333333333333333, 0.3333333333333333, 0.3333333333333333;
    ( 1, 2, 1, 1, 0, 1, 0, 1 ) 0.3333333333333333, 0.3333333333333333, 0.3333333333333333;
    ( 1, 2, 1, 1, 0, 1, 1, 0 ) 0.3333333333333333, 0.3333333333333333, 0.3333333333333333;
    ( 1, 2, 1, 1, 0, 1, 1, 1 ) 0.3333333333333333, 0.3333333333333333, 0.3333333333333333;
    ( 1, 2, 1, 1, 1, 0, 0, 0 ) 0.3333333333333333, 0.3333333333333333, 0.3333333333333333;
    ( 1, 2, 1, 1, 1, 0, 0, 1 ) 0.3333333333333333, 0.3333333333333333, 0.3333333333333333;
    ( 1, 2, 1, 1, 1, 0, 1, 0 ) 0.16666666666666666, 0.8333333333333334, 0.0;
    ( 1, 2, 1, 1, 1, 0, 1, 1 ) 0.3333333333333333, 0.3333333333333333, 0.3333333333333333;
    ( 1, 2, 1, 1, 1, 1, 0, 0 ) 0.3333333333333333, 0.3333333333333333, 0.3333333333333333;
    ( 1, 2, 1, 1, 1, 1, 0, 1 ) 0.3333333333333333, 0.3333333333333333, 0.3333333333333333;
    ( 1, 2, 1, 1, 1, 1, 1, 0 ) 0.3333333333333333, 0.3333333333333333, 0.3333333333333333;
    ( 1, 2, 1, 1, 1, 1, 1, 1 ) 0.3333333333333333, 0.3333333333333333, 0.3333333333333333;
    ( 1, 2, 1, 1, 2, 0, 0, 0 ) 0.3333333333333333, 0.3333333333333333, 0.3333333333333333;
    ( 1, 2, 1, 1, 2, 0, 0, 1 ) 0.3333333333333333, 0.3333333333333333, 0.3333333333333333;
    ( 1, 2, 1, 1, 2, 0, 1, 0 ) 0.3333333333333333, 0.3333333333333333, 0.3333333333333333;
    ( 1, 2, 1, 1, 2, 0, 1, 1 ) 0.3333333333333333, 0.3333333333333333, 0.3333333333333333;
    ( 1, 2, 1, 1, 2, 1, 0, 0 ) 0.3333333333333333, 0.3333333333333333, 0.3333333333333333;
    ( 1, 2, 1, 1, 2, 1, 0, 1 ) 0.3333333333333333, 0.3333333333333333, 0.3333333333333333;
    ( 1, 2, 1, 1, 2, 1, 1, 0 ) 0.3333333333333333, 0.3333333333333333, 0.3333333333333333;
    ( 1, 2, 1, 1, 2, 1, 1, 1 ) 0.3333333333333333, 0.3333333333333333, 0.3333333333333333;
    ( 1, 2, 2, 0, 0, 0, 0, 0 ) 0.3333333333333333, 0.3333333333333333, 0.3333333333333333;
    ( 1, 2, 2, 0, 0, 0, 0, 1 ) 0.3333333333333333, 0.3333333333333333, 0.3333333333333333;
    ( 1, 2, 2, 0, 0, 0, 1, 0 ) 0.0, 1.0, 0.0;
    ( 1, 2, 2, 0, 0, 0, 1, 1 ) 0.3333333333333333, 0.3333333333333333, 0.3333333333333333;
    ( 1, 2, 2, 0, 0, 1, 0, 0 ) 0.3333333333333333, 0.3333333333333333, 0.3333333333333333;
    ( 1, 2, 2, 0, 0, 1, 0, 1 ) 0.3333333333333333, 0.3333333333333333, 0.3333333333333333;
    ( 1, 2, 2, 0, 0, 1, 1, 0 ) 0.3333333333333333, 0.3333333333333333, 0.3333333333333333;
    ( 1, 2, 2, 0, 0, 1, 1, 1 ) 0.3333333333333333, 0.3333333333333333, 0.3333333333333333;
    ( 1, 2, 2, 0, 1, 0, 0, 0 ) 0.14285714285714285, 0.8571428571428571, 0.0;
    ( 1, 2, 2, 0, 1, 0, 0, 1 ) 0.3333333333333333, 0.3333333333333333, 0.3333333333333333;
    ( 1, 2, 2, 0, 1, 0, 1, 0 ) 0.04918032786885246, 0.9508196721311475, 0.0;
    ( 1, 2, 2, 0, 1, 0, 1, 1 ) 0.0, 1.0, 0.0;
    ( 1, 2, 2, 0, 1, 1, 0, 0 ) 0.3333333333333333, 0.3333333333333333, 0.3333333333333333;
    ( 1, 2, 2, 0, 1, 1, 0, 1 ) 0.3333333333333333, 0.3333333333333333, 0.3333333333333333;
    ( 1, 2, 2, 0, 1, 1, 1, 0 ) 0.0, 1.0, 0.0;
    ( 1, 2, 2, 0, 1, 1, 1, 1 ) 0.3333333333333333, 0.3333333333333333, 0.3333333333333333;
    ( 1, 2, 2, 0, 2, 0, 0, 0 ) 0.3333333333333333, 0.3333333333333333, 0.3333333333333333;
    ( 1, 2, 2, 0, 2, 0, 0, 1 ) 0.3333333333333333, 0.3333333333333333, 0.3333333333333333;
    ( 1, 2, 2, 0, 2, 0, 1, 0 ) 0.3333333333333333, 0.3333333333333333, 0.3333333333333333;
    ( 1, 2, 2, 0, 2, 0, 1, 1 ) 0.3333333333333333, 0.3333333333333333, 0.3333333333333333;
    ( 1, 2, 2, 0, 2, 1, 0, 0 ) 0.3333333333333333, 0.3333333333333333, 0.3333333333333333;
    ( 1, 2, 2, 0, 2, 1, 0, 1 ) 0.3333333333333333, 0.3333333333333333, 0.3333333333333333;
    ( 1, 2, 2, 0, 2, 1, 1, 0 ) 0.3333333333333333, 0.3333333333333333, 0.3333333333333333;
    ( 1, 2, 2, 0, 2, 1, 1, 1 ) 0.3333333333333333, 0.3333333333333333, 0.3333333333333333;
    ( 1, 2, 2, 1, 0, 0, 0, 0 ) 0.3333333333333333, 0.3333333333333333, 0.3333333333333333;
    ( 1, 2, 2, 1, 0, 0, 0, 1 ) 0.3333333333333333, 0.3333333333333333, 0.3333333333333333;
    ( 1, 2, 2, 1, 0, 0, 1, 0 ) 0.3333333333333333, 0.3333333333333333, 0.3333333333333333;
    ( 1, 2, 2, 1, 0, 0, 1, 1 ) 0.3333333333333333, 0.3333333333333333, 0.3333333333333333;
    ( 1, 2, 2, 1, 0, 1, 0, 0 ) 0.3333333333333333, 0.3333333333333333, 0.3333333333333333;
    ( 1, 2, 2, 1, 0, 1, 0, 1 ) 0.3333333333333333, 0.3333333333333333, 0.3333333333333333;
    ( 1, 2, 2, 1, 0, 1, 1, 0 ) 0.3333333333333333, 0.3333333333333333, 0.3333333333333333;
    ( 1, 2, 2, 1, 0, 1, 1, 1 ) 0.3333333333333333, 0.3333333333333333, 0.3333333333333333;
    ( 1, 2, 2, 1, 1, 0, 0, 0 ) 0.3333333333333333, 0.3333333333333333, 0.3333333333333333;
    ( 1, 2, 2, 1, 1, 0, 0, 1 ) 0.3333333333333333, 0.3333333333333333, 0.3333333333333333;
    ( 1, 2, 2, 1, 1, 0, 1, 0 ) 0.3333333333333333, 0.3333333333333333, 0.3333333333333333;
    ( 1, 2, 2, 1, 1, 0, 1, 1 ) 0.3333333333333333, 0.3333333333333333, 0.3333333333333333;
    ( 1, 2, 2, 1, 1, 1, 0, 0 ) 0.3333333333333333, 0.3333333333333333, 0.3333333333333333;
    ( 1, 2, 2, 1, 1, 1, 0, 1 ) 0.3333333333333333, 0.3333333333333333, 0.3333333333333333;
    ( 1, 2, 2, 1, 1, 1, 1, 0 ) 0.3333333333333333, 0.3333333333333333, 0.3333333333333333;
    ( 1, 2, 2, 1, 1, 1, 1, 1 ) 0.3333333333333333, 0.3333333333333333, 0.3333333333333333;
    ( 1, 2, 2, 1, 2, 0, 0, 0 ) 0.3333333333333333, 0.3333333333333333, 0.3333333333333333;
    ( 1, 2, 2, 1, 2, 0, 0, 1 ) 0.3333333333333333, 0.3333333333333333, 0.3333333333333333;
    ( 1, 2, 2, 1, 2, 0, 1, 0 ) 0.3333333333333333, 0.3333333333333333, 0.3333333333333333;
    ( 1, 2, 2, 1, 2, 0, 1, 1 ) 0.3333333333333333, 0.3333333333333333, 0.3333333333333333;
    ( 1, 2, 2, 1, 2, 1, 0, 0 ) 0.3333333333333333, 0.3333333333333333, 0.3333333333333333;
    ( 1, 2, 2, 1, 2, 1, 0, 1 ) 0.3333333333333333, 0.3333333333333333, 0.3333333333333333;
    ( 1, 2, 2, 1, 2, 1, 1, 0 ) 0.3333333333333333, 0.3333333333333333, 0.3333333333333333;
    ( 1, 2, 2, 1, 2, 1, 1, 1 ) 0.3333333333333333, 0.3333333333333333, 0.3333333333333333;
    ( 1, 3, 0, 0, 0, 0, 0, 0 ) 0.3333333333333333, 0.3333333333333333, 0.3333333333333333;
    ( 1, 3, 0, 0, 0, 0, 0, 1 ) 0.3333333333333333, 0.3333333333333333, 0.3333333333333333;
    ( 1, 3, 0, 0, 0, 0, 1, 0 ) 0.3333333333333333, 0.3333333333333333, 0.3333333333333333;
    ( 1, 3, 0, 0, 0, 0, 1, 1 ) 0.3333333333333333, 0.3333333333333333, 0.3333333333333333;
    ( 1, 3, 0, 0, 0, 1, 0, 0 ) 0.3333333333333333, 0.3333333333333333, 0.3333333333333333;
    ( 1, 3, 0, 0, 0, 1, 0, 1 ) 0.3333333333333333, 0.3333333333333333, 0.3333333333333333;
    ( 1, 3, 0, 0, 0, 1, 1, 0 ) 0.3333333333333333, 0.3333333333333333, 0.3333333333333333;
    ( 1, 3, 0, 0, 0, 1, 1, 1 ) 0.3333333333333333, 0.3333333333333333, 0.3333333333333333;
    ( 1, 3, 0, 0, 1, 0, 0, 0 ) 0.02564102564102564, 0.9743589743589743, 0.0;
    ( 1, 3, 0, 0, 1, 0, 0, 1 ) 0.3333333333333333, 0.3333333333333333, 0.3333333333333333;
    ( 1, 3, 0, 0, 1, 0, 1, 0 ) 0.01107011070110701, 0.988929889298893, 0.0;
    ( 1, 3, 0, 0, 1, 0, 1, 1 ) 0.0, 0.9565217391304348, 0.043478260869565216;
    ( 1, 3, 0, 0, 1, 1, 0, 0 ) 0.3333333333333333, 0.3333333333333333, 0.3333333333333333;
    ( 1, 3, 0, 0, 1, 1, 0, 1 ) 0.3333333333333333, 0.3333333333333333, 0.3333333333333333;
    ( 1, 3, 0, 0, 1, 1, 1, 0 ) 0.0, 1.0, 0.0;
    ( 1, 3, 0, 0, 1, 1, 1, 1 ) 0.3333333333333333, 0.3333333333333333, 0.3333333333333333;
    ( 1, 3, 0, 0, 2, 0, 0, 0 ) 0.3333333333333333, 0.3333333333333333, 0.3333333333333333;
    ( 1, 3, 0, 0, 2, 0, 0, 1 ) 0.3333333333333333, 0.3333333333333333, 0.3333333333333333;
    ( 1, 3, 0, 0, 2, 0, 1, 0 ) 0.0, 1.0, 0.0;
    ( 1, 3, 0, 0, 2, 0, 1, 1 ) 0.3333333333333333, 0.3333333333333333, 0.3333333333333333;
    ( 1, 3, 0, 0, 2, 1, 0, 0 ) 0.3333333333333333, 0.3333333333333333, 0.3333333333333333;
    ( 1, 3, 0, 0, 2, 1, 0, 1 ) 0.3333333333333333, 0.3333333333333333, 0.3333333333333333;
    ( 1, 3, 0, 0, 2, 1, 1, 0 ) 0.3333333333333333, 0.3333333333333333, 0.3333333333333333;
    ( 1, 3, 0, 0, 2, 1, 1, 1 ) 0.3333333333333333, 0.3333333333333333, 0.3333333333333333;
    ( 1, 3, 0, 1, 0, 0, 0, 0 ) 0.3333333333333333, 0.3333333333333333, 0.3333333333333333;
    ( 1, 3, 0, 1, 0, 0, 0, 1 ) 0.3333333333333333, 0.3333333333333333, 0.3333333333333333;
    ( 1, 3, 0, 1, 0, 0, 1, 0 ) 0.3333333333333333, 0.3333333333333333, 0.3333333333333333;
    ( 1, 3, 0, 1, 0, 0, 1, 1 ) 0.3333333333333333, 0.3333333333333333, 0.3333333333333333;
    ( 1, 3, 0, 1, 0, 1, 0, 0 ) 0.3333333333333333, 0.3333333333333333, 0.3333333333333333;
    ( 1, 3, 0, 1, 0, 1, 0, 1 ) 0.3333333333333333, 0.3333333333333333, 0.3333333333333333;
    ( 1, 3, 0, 1, 0, 1, 1, 0 ) 0.3333333333333333, 0.3333333333333333, 0.3333333333333333;
    ( 1, 3, 0, 1, 0, 1, 1, 1 ) 0.3333333333333333, 0.3333333333333333, 0.3333333333333333;
    ( 1, 3, 0, 1, 1, 0, 0, 0 ) 0.3333333333333333, 0.3333333333333333, 0.3333333333333333;
    ( 1, 3, 0, 1, 1, 0, 0, 1 ) 0.3333333333333333, 0.3333333333333333, 0.3333333333333333;
    ( 1, 3, 0, 1, 1, 0, 1, 0 ) 0.3333333333333333, 0.3333333333333333, 0.3333333333333333;
    ( 1, 3, 0, 1, 1, 0, 1, 1 ) 0.3333333333333333, 0.3333333333333333, 0.3333333333333333;
    ( 1, 3, 0, 1, 1, 1, 0, 0 ) 0.3333333333333333, 0.3333333333333333, 0.3333333333333333;
    ( 1, 3, 0, 1, 1, 1, 0, 1 ) 0.3333333333333333, 0.3333333333333333, 0.3333333333333333;
    ( 1, 3, 0, 1, 1, 1, 1, 0 ) 0.3333333333333333, 0.3333333333333333, 0.3333333333333333;
    ( 1, 3, 0, 1, 1, 1, 1, 1 ) 0.3333333333333333, 0.3333333333333333, 0.3333333333333333;
    ( 1, 3, 0, 1, 2, 0, 0, 0 ) 0.3333333333333333, 0.3333333333333333, 0.3333333333333333;
    ( 1, 3, 0, 1, 2, 0, 0, 1 ) 0.3333333333333333, 0.3333333333333333, 0.3333333333333333;
    ( 1, 3, 0, 1, 2, 0, 1, 0 ) 0.3333333333333333, 0.3333333333333333, 0.3333333333333333;
    ( 1, 3, 0, 1, 2, 0, 1, 1 ) 0.3333333333333333, 0.3333333333333333, 0.3333333333333333;
    ( 1, 3, 0, 1, 2, 1, 0, 0 ) 0.3333333333333333, 0.3333333333333333, 0.3333333333333333;
    ( 1, 3, 0, 1, 2, 1, 0, 1 ) 0.3333333333333333, 0.3333333333333333, 0.3333333333333333;
    ( 1, 3, 0, 1, 2, 1, 1, 0 ) 0.3333333333333333, 0.3333333333333333, 0.3333333333333333;
    ( 1, 3, 0, 1, 2, 1, 1, 1 ) 0.3333333333333333, 0.3333333333333333, 0.3333333333333333;
    ( 1, 3, 1, 0, 0, 0, 0, 0 ) 0.3333333333333333, 0.3333333333333333, 0.3333333333333333;
    ( 1, 3, 1, 0, 0, 0, 0, 1 ) 0.3333333333333333, 0.3333333333333333, 0.3333333333333333;
    ( 1, 3, 1, 0, 0, 0, 1, 0 ) 0.0, 1.0, 0.0;
    ( 1, 3, 1, 0, 0, 0, 1, 1 ) 0.3333333333333333, 0.3333333333333333, 0.3333333333333333;
    ( 1, 3, 1, 0, 0, 1, 0, 0 ) 0.3333333333333333, 0.3333333333333333, 0.3333333333333333;
    ( 1, 3, 1, 0, 0, 1, 0, 1 ) 0.3333333333333333, 0.3333333333333333, 0.3333333333333333;
    ( 1, 3, 1, 0, 0, 1, 1, 0 ) 0.3333333333333333, 0.3333333333333333, 0.3333333333333333;
    ( 1, 3, 1, 0, 0, 1, 1, 1 ) 0.3333333333333333, 0.3333333333333333, 0.3333333333333333;
    ( 1, 3, 1, 0, 1, 0, 0, 0 ) 0.0, 1.0, 0.0;
    ( 1, 3, 1, 0, 1, 0, 0, 1 ) 0.3333333333333333, 0.3333333333333333, 0.3333333333333333;
    ( 1, 3, 1, 0, 1, 0, 1, 0 ) 0.00967741935483871, 0.9903225806451613, 0.0;
    ( 1, 3, 1, 0, 1, 0, 1, 1 ) 0.0, 1.0, 0.0;
    ( 1, 3, 1, 0, 1, 1, 0, 0 ) 0.3333333333333333, 0.3333333333333333, 0.3333333333333333;
    ( 1, 3, 1, 0, 1, 1, 0, 1 ) 0.3333333333333333, 0.3333333333333333, 0.3333333333333333;
    ( 1, 3, 1, 0, 1, 1, 1, 0 ) 0.0, 1.0, 0.0;
    ( 1, 3, 1, 0, 1, 1, 1, 1 ) 0.0, 1.0, 0.0;
    ( 1, 3, 1, 0, 2, 0, 0, 0 ) 0.0, 1.0, 0.0;
    ( 1, 3, 1, 0, 2, 0, 0, 1 ) 0.3333333333333333, 0.3333333333333333, 0.3333333333333333;
    ( 1, 3, 1, 0, 2, 0, 1, 0 ) 0.0, 1.0, 0.0;
    ( 1, 3, 1, 0, 2, 0, 1, 1 ) 0.3333333333333333, 0.3333333333333333, 0.3333333333333333;
    ( 1, 3, 1, 0, 2, 1, 0, 0 ) 0.3333333333333333, 0.3333333333333333, 0.3333333333333333;
    ( 1, 3, 1, 0, 2, 1, 0, 1 ) 0.3333333333333333, 0.3333333333333333, 0.3333333333333333;
    ( 1, 3, 1, 0, 2, 1, 1, 0 ) 0.3333333333333333, 0.3333333333333333, 0.3333333333333333;
    ( 1, 3, 1, 0, 2, 1, 1, 1 ) 0.3333333333333333, 0.3333333333333333, 0.3333333333333333;
    ( 1, 3, 1, 1, 0, 0, 0, 0 ) 0.3333333333333333, 0.3333333333333333, 0.3333333333333333;
    ( 1, 3, 1, 1, 0, 0, 0, 1 ) 0.3333333333333333, 0.3333333333333333, 0.3333333333333333;
    ( 1, 3, 1, 1, 0, 0, 1, 0 ) 0.3333333333333333, 0.3333333333333333, 0.3333333333333333;
    ( 1, 3, 1, 1, 0, 0, 1, 1 ) 0.3333333333333333, 0.3333333333333333, 0.3333333333333333;
    ( 1, 3, 1, 1, 0, 1, 0, 0 ) 0.3333333333333333, 0.3333333333333333, 0.3333333333333333;
    ( 1, 3, 1, 1, 0, 1, 0, 1 ) 0.3333333333333333, 0.3333333333333333, 0.3333333333333333;
    ( 1, 3, 1, 1, 0, 1, 1, 0 ) 0.3333333333333333, 0.3333333333333333, 0.3333333333333333;
    ( 1, 3, 1, 1, 0, 1, 1, 1 ) 0.3333333333333333, 0.3333333333333333, 0.3333333333333333;
    ( 1, 3, 1, 1, 1, 0, 0, 0 ) 0.3333333333333333, 0.3333333333333333, 0.3333333333333333;
    ( 1, 3, 1, 1, 1, 0, 0, 1 ) 0.3333333333333333, 0.3333333333333333, 0.3333333333333333;
    ( 1, 3, 1, 1, 1, 0, 1, 0 ) 0.0, 1.0, 0.0;
    ( 1, 3, 1, 1, 1, 0, 1, 1 ) 0.3333333333333333, 0.3333333333333333, 0.3333333333333333;
    ( 1, 3, 1, 1, 1, 1, 0, 0 ) 0.3333333333333333, 0.3333333333333333, 0.3333333333333333;
    ( 1, 3, 1, 1, 1, 1, 0, 1 ) 0.3333333333333333, 0.3333333333333333, 0.3333333333333333;
    ( 1, 3, 1, 1, 1, 1, 1, 0 ) 0.3333333333333333, 0.3333333333333333, 0.3333333333333333;
